3
-3
-1
1
0
0
2
3
-3
0
-1
-2
1
0
-1
0
-3
0
-1
-1
1
2
-2
-2
2
-1
0
1
1
1
0
2
2
-2
-1
-2
0
3
0
0
0
1
0
-2
-1
0
0
0
-1
1
0
3
1
-2
0
2
0
0
1
0
0
-2
1
0
0
0
-1
0
0
-3
-3
0
2
1
-2
2
-2
-2
1
0
1
3
3
0
2
0
0
0
2
-2
1
1
0
-1
0
0
0
2
3
2
0
0
0
-2
0
1
-3
2
-1
0
1
2
1
0
-1
2
-1
-1
0
2
0
2
2
3
-1
-3
0
0
3
2
-1
0
-1
0
-2
3
-2
0
0
2
1
3
-2
1
1
-1
-3
0
1
0
3
-3
0
-2
-1
1
1
0
2
-1
1
0
1
-3
2
-1
-1
0
2
-1
-2
1
-1
0
-3
0
-1
-3
0
1
0
2
-1
2
-1
-3
0
2
-1
-1
0
1
-2
3
-1
0
-1
1
1
0
-3
1
1
0
2
-2
0
2
0
-1
-2
0
0
3
1
0
2
0
0
1
0
-3
2
0
0
-2
1
-2
2
0
0
1
-2
0
0
3
3
-1
-1
2
3
2
0
1
0
1
0
-2
0
0
1
0
3
0
-2
0
-2
0
0
2
-3
-1
1
-3
-2
2
0
0
-1
1
3
0
0
-3
1
1
0
-3
-2
0
0
0
-1
0
-2
0
2
-2
-1
0
-2
-1
1
-1
0
3
0
0
0
-2
0
-1
-3
1
-3
-1
0
1
-3
1
1
-1
1
1
3
-2
0
1
0
3
-3
-1
1
-1
-1
-2
0
-2
0
-1
0
-1
3
-2
0
-1
0
-2
-1
-2
1
3
1
-2
3
1
0
-1
3
3
1
-2
-1
1
2
0
3
1
1
0
-2
-3
2
0
0
-3
2
-1
1
-3
-3
-3
0
-2
3
2
-2
1
3
0
-1
0
1
0
-1
0
1
1
-2
0
-2
-1
0
-2
-2
-2
2
-1
-1
1
0
2
-2
0
2
-3
-2
1
1
1
2
0
-2
1
-2
-3
0
-2
0
3
-3
2
0
-1
1
1
-3
-3
1
-3
0
2
1
2
0
2
2
0
0
-3
2
3
-3
1
-2
0
-2
-1
-1
1
-3
1
-1
1
-3
1
0
-1
0
0
2
0
0
0
-2
0
2
1
2
0
-3
2
2
0
1
2
-1
0
1
-1
-3
1
-3
1
0
3
-2
0
-3
1
1
-1
2
2
0
0
1
-1
-1
-3
-1
0
2
-3
-3
-2
2
-3
-1
2
0
1
-2
-3
-2
-1
-1
0
0
0
1
-3
0
-1
-2
-3
-2
0
1
-1
0
3
3
-3
0
0
-1
-2
-1
0
3
-2
-2
2
-2
-1
0
2
-2
1
0
2
0
-1
-1
-2
-1
-3
0
2
2
0
-2
0
0
0
1
0
-2
0
3
3
0
2
-1
2
-1
-1
-2
1
-3
0
-3
-2
0
-3
0
2
-3
0
-2
2
-1
0
1
1
2
1
1
1
-1
-2
-2
0
2
-2
2
-1
-1
-2
1
1
-2
0
-2
-3
0
2
-1
0
0
0
-1
0
3
-1
-3
2
-3
2
0
-2
1
1
-2
0
0
2
2
-3
-2
-3
1
-3
1
1
-3
0
-1
1
1
-3
-2
0
0
0
1
-1
-3
0
-1
-2
3
2
-3
1
0
1
2
0
-3
1
1
-2
1
-3
-1
-3
-3
-1
0
3
3
-3
2
1
-2
0
-1
0
0
1
1
0
3
1
2
-3
1
-1
0
0
0
1
1
0
-2
3
1
2
3
3
2
0
-2
-2
-1
0
1
0
-1
1
-2
1
0
3
1
0
-1
0
0
0
0
1
0
-1
0
0
-1
0
0
-2
-3
0
0
0
3
-1
2
-2
-2
-1
1
-2
-1
1
2
0
-3
2
2
-2
-1
0
-2
0
0
0
0
-1
-3
-2
0
2
-3
-1
-1
1
2
-3
0
1
1
0
2
-2
-1
-2
0
1
-1
2
0
0
-2
1
-2
-3
3
-2
2
-3
-1
1
0
-2
1
3
0
1
0
3
-1
2
1
2
-1
3
-3
1
3
3
0
2
-3
0
-2
3
3
2
0
-1
-2
-3
-1
0
1
1
2
1
-2
-2
0
3
1
2
0
-3
1
-1
0
0
0
-1
-2
-3
-2
-3
-1
0
1
-2
-3
3
1
0
-2
-2
1
-3
0
-2
1
2
1
2
-3
-3
1
-1
0
-2
0
-2
3
-3
-3
0
1
-2
-1
-2
-1
3
-2
0
0
-1
1
0
1
1
1
1
-1
0
-3
0
-1
1
2
-1
1
0
-1
0
3
-2
1
-3
0
2
-2
-2
-3
-2
-2
0
0
1
1
0
-1
-1
3
1
1
3
-2
2
-1
2
0
1
3
1
0
3
-3
-1
-1
2
0
1
1
-1
0
3
0
-2
-2
0
0
1
2
-1
-2
1
-1
-2
1
-3
-2
3
0
0
-1
-2
-2
-2
2
-3
0
0
2
0
3
3
0
-3
1
-1
2
1
0
0
-2
0
1
-3
-2
-2
0
0
-2
1
-2
1
-2
0
3
2
-1
3
1
1
-3
0
-1
2
2
1
-2
0
0
3
-1
-1
-1
0
3
0
1
0
-3
2
0
-1
0
0
3
1
-3
3
2
2
-1
-1
3
-2
0
-2
-2
1
-3
2
0
1
-1
0
-1
-1
-2
2
-1
-1
0
-3
0
-1
-1
-2
1
-1
3
-1
1
-2
1
-2
-1
3
-3
1
0
2
-2
1
0
1
-3
0
-3
0
-2
-3
3
-2
-3
0
1
0
1
2
3
-1
-3
-1
0
-3
-1
3
1
0
2
0
-2
0
-3
0
0
3
1
-2
0
-1
-1
0
2
0
3
1
1
0
-3
0
1
-2
2
-2
-2
0
2
2
0
-1
-2
0
0
-2
3
0
1
-2
-3
-2
1
1
0
-2
1
0
2
1
0
0
-1
-1
1
0
2
-2
-2
-3
1
-1
3
0
-2
2
-2
0
-3
0
-3
1
3
0
0
3
0
-1
-1
3
-3
0
2
2
2
0
0
2
3
0
-2
-2
1
0
-1
3
2
1
-1
2
3
-2
-1
0
-2
2
0
0
-2
2
-2
3
-2
1
-3
0
2
0
0
2
1
0
1
-1
0
2
-2
2
2
-1
-2
-2
1
2
-2
2
-2
2
2
1
-2
0
-3
0
1
-2
-1
3
0
-2
-1
-1
-2
-1
-2
0
0
2
-2
-2
0
2
0
3
0
1
0
2
0
-1
2
-1
1
-1
0
-2
-3
2
-2
0
-2
0
-1
-2
-2
2
2
-1
0
-1
1
-2
2
0
2
1
1
1
-1
-2
0
-3
-3
0
-1
-3
0
0
1
-1
0
-1
-2
-2
0
2
2
-3
0
0
-2
2
-2
-2
0
-1
-1
3
0
-2
2
-1
-2
2
2
-2
2
2
-2
1
-2
0
-3
0
1
1
-1
0
3
-2
1
-3
0
-3
-1
0
-3
-1
0
0
0
1
0
1
-1
0
-3
2
-1
1
0
-1
-3
1
-3
0
0
-2
-3
-2
-1
0
3
0
0
3
-3
3
-1
0
0
3
0
-2
1
-2
2
1
-1
0
2
0
2
3
-1
-1
2
1
3
1
0
0
-1
1
-2
3
-3
0
-3
1
3
0
1
-2
1
-3
-1
0
-1
2
3
1
-2
-2
1
2
3
3
0
3
0
0
-3
0
-1
0
-1
1
-1
0
0
0
0
0
3
0
2
0
-2
0
-2
2
-1
1
0
-1
0
1
2
-3
-2
1
2
2
2
-1
0
0
0
-2
-2
-3
0
2
2
-1
-1
-3
0
-2
3
3
-2
0
0
2
2
-3
1
-2
1
2
0
-1
0
3
0
0
0
0
-3
0
0
-3
1
2
-3
1
-3
1
-2
2
0
2
-1
-1
-3
2
1
-3
-3
0
-1
2
-1
-2
-2
0
3
-2
-1
3
0
1
1
-2
2
-1
0
-1
0
2
1
1
3
-2
-2
-1
0
3
1
-2
0
0
1
1
3
-3
-1
0
0
3
0
0
-1
0
0
1
-1
1
1
1
2
-1
-2
-1
-1
0
0
0
1
2
2
1
3
3
2
-3
3
0
-3
1
-2
-1
-2
-2
0
0
-2
0
2
0
1
-1
2
-2
0
-3
0
1
0
0
0
-2
1
2
-1
0
0
-2
-2
2
2
1
3
2
2
2
1
0
3
2
0
-3
1
0
2
-3
-2
-3
-1
-3
-3
0
1
1
3
-2
1
-2
-1
0
-2
2
0
-3
2
3
0
2
0
0
3
-1
0
3
-3
0
-3
3
1
1
0
-2
0
2
0
2
1
1
-2
1
-1
-1
-3
0
-2
-2
-1
2
0
-3
0
-2
-1
-1
3
-2
-3
0
2
1
-1
3
-1
2
0
0
-3
-3
0
0
3
-1
-2
0
0
-1
0
0
-1
2
-2
0
0
1
0
2
-1
2
2
0
-2
1
0
0
-1
-3
3
2
-3
-2
1
-3
0
1
2
1
0
0
-3
-3
-2
-3
0
-3
0
3
0
0
-3
-1
2
-2
2
-1
2
0
-1
0
0
3
0
0
3
0
0
-3
-1
-1
0
0
2
3
0
0
0
-1
-3
-3
3
0
-3
1
2
-3
0
3
2
1
0
-3
0
-3
1
0
0
0
0
0
1
1
-1
-1
2
0
0
1
-1
-1
2
-1
-3
1
-1
2
1
0
-1
2
2
-2
-3
-1
0
1
2
-2
0
1
3
0
2
-2
-2
-2
0
-1
3
3
1
-2
1
1
0
0
0
1
0
0
-2
3
2
0
0
1
2
-2
1
3
-2
0
-3
-3
2
-2
3
-1
0
-2
0
-1
-2
2
3
2
2
2
-3
0
2
3
3
-1
-1
0
-1
-1
2
0
-1
1
-1
-2
-2
2
0
-3
0
0
2
2
0
-2
0
-1
0
0
0
0
-3
0
-2
2
-1
-2
-3
0
0
0
1
0
-2
-2
-3
-2
-3
0
-1
-1
-3
0
-3
-1
-1
0
2
2
-2
2
-1
-1
-1
-3
-2
2
-3
1
3
2
2
-2
0
0
2
-1
1
-1
-1
1
-3
-1
-1
-2
2
0
2
2
0
0
2
0
0
2
-3
0
3
0
-2
0
0
2
-2
-2
-3
-3
0
0
-2
1
1
-2
0
1
2
2
-1
-1
1
-2
-1
3
-3
0
2
2
1
0
-1
2
0
0
-3
0
-4
2
-3
27
8
18
-8
17
10
8
13
-18
-322
12
0
-50
-14
-3
-108
-9
-3
-76
11
18
23
2
3
-2
13
-6
84
-12
9
14
40
25
14
41
25
-63
-5
41
16
7
1
-4
6
1
13
-14
8
16
0
8
7
27
16
8
7
8
9
-11
-48
8
11
-18
13
13
-60
-24
0
1
13
-36
62
-2
0
3
-2
-3
11
18
10
-3
-9
-3
5
-58
9
-4
-1
21
15
11
-1
-42
6
47
11
-6
10
6
-10
-277
18
9
10
1
-10
15
-7
8
9
-12
2
-2
-52
-5
-24
12
11
15
-22
4
5
13
12
-6
-32
13
6
15
-4
5
8
0
4
-14
-32
5
15
-4
-23
2
-52
19
9
43
-3
5
-6
-1
-29
8
0
10
16
10
-9
-2
7
9
4
7
11
-10
4
14
0
6
11
1
34
5
-24
7
8
-20
-40
16
5
9
30
0
7
11
-6
10
7
1
17
18
8
0
9
9
22
0
17
4
9
7
-5
0
18
0
14
6
10
5
0
-104
41
0
2
0
7
9
8
14
0
28
11
10
14
-31
-80
6
66
-3
3
5
-49
1
9
6
8
2
1
2
-58
-22
23
14
8
-3
15
-2
0
-4
-10
0
16
-1
11
9
0
-211
-1
-11
-3
13
14
23
-62
-15
11
-17
-115
6
11
-56
-8
-17
-120
-25
-4
-46
2
18
66
0
0
-7
18
-22
22
39
8
5
47
3
-4
47
32
-352
-4
46
11
12
10
3
8
14
-5
-67
3
5
-2
11
0
22
-34
9
-7
19
-8
-10
-48
19
10
-22
3
-1
-71
-21
-8
-1
15
16
44
0
-2
0
-5
9
2
3
13
0
-11
-11
6
-75
12
-8
-5
10
-7
-8
-4
-31
0
-14
5
-13
2
-8
-10
62
-60
10
0
0
-2
8
18
16
7
-13
0
-185
-59
-1
-8
-3
-4
18
-305
-1
4
11
16
-3
-11
5
0
14
-15
-6
11
0
-1
-18
-44
-10
14
-25
-26
3
-52
13
5
42
-3
-8
-10
1
-41
12
7
4
13
-11
-18
-8
-2
-24
2
10
15
-8
1
9
-8
-1
7
-12
30
-6
-44
0
3
-10
-40
70
2
-5
31
6
5
28
11
-14
6
1
-4
-12
5
-1
11
18
12
3
9
2
0
8
-7
0
23
-4
-4
4
16
2
13
-157
50
-2
0
-10
5
10
-2
10
-12
33
-19
0
7
-13
-61
1
-33
1
-9
29
-38
-1
12
6
-20
1
0
-1
-20
-108
24
7
5
-5
18
-1
-10
-9
-10
5
18
-14
9
29
-15
-9
-1
16
22
15
-255
27
-196
-16
-15
-21
16
5
12
-55
2
-4
-117
-15
-6
-33
-2
9
28
36
0
-7
-6
-13
2
-2
5
9
29
11
-32
48
16
-56
-13
25
16
13
6
5
-8
3
10
-70
-2
14
-1
30
9
20
10
12
6
6
-1
-11
-51
26
9
-23
8
15
-66
-29
-1
-8
19
1
34
-12
-5
0
-9
-5
-5
-3
8
7
-8
-4
8
-16
5
-11
-10
5
-8
26
-6
-34
-23
10
11
-18
14
-40
-2
-75
-24
3
5
-6
21
11
14
20
-23
-15
-164
1
-70
-5
0
36
-2
0
-310
-4
-8
-12
11
-1
-47
9
-2
22
-6
15
8
-5
-2
-16
-47
4
10
39
-22
-8
-51
15
6
38
-1
7
2
-5
-48
23
10
21
14
-18
-23
-8
-6
38
2
14
9
95
35
7
-25
-21
8
-16
23
-10
0
-10
-1
-20
13
-26
1
-2
28
7
35
-15
-30
7
5
10
14
10
22
-7
12
21
15
8
9
-14
-2
4
4
1
-12
0
-5
2
-16
-3
13
-179
21
-8
-27
-29
5
5
2
13
-4
13
-37
-22
7
8
-43
2
15
-21
25
2
-28
0
3
-4
8
2
-17
-10
-1
-97
18
14
6
-7
14
-2
-9
-7
-36
7
20
-11
9
-11
9
-3
-12
11
20
18
10
17
-44
-9
-53
-38
8
5
7
-45
16
-10
-78
-12
-9
0
-9
2
40
-260
2
-3
16
-19
8
14
8
-7
8
-29
16
51
18
22
-2
25
0
-15
-5
-31
7
-129
35
-21
-5
4
-6
-11
-8
23
-18
12
-5
-21
-1
-12
-51
10
-49
-29
11
17
-59
-23
-14
1
18
-15
17
-10
-15
0
-4
17
1
0
19
23
-44
-20
-1
21
16
-50
-1
0
2
18
-15
-27
4
9
0
-13
1
-171
-27
16
-106
10
-32
-5
11
7
3
22
17
-15
4
-6
-53
-12
-7
-5
17
21
-298
-6
-12
-170
6
-4
-21
4
3
21
-13
4
12
-2
5
-2
-41
-61
-1
-11
-24
10
-58
19
18
44
-81
-19
18
-18
-48
2
23
-13
27
-20
63
-5
-25
-15
-304
21
0
2
0
-2
-43
-40
11
-21
18
12
29
-14
12
-21
10
-9
-64
-6
15
20
-6
-4
28
7
7
-9
-1
-3
8
-4
18
6
-15
-21
15
-21
6
12
3
-48
34
-13
3
27
-11
14
11
-141
-9
-11
0
-21
5
8
-4
10
-19
4
-1
3
-12
25
-26
1
-9
1
-10
-298
-45
0
6
3
-26
1
-24
-7
-3
-30
19
21
0
-24
17
-2
-3
-6
-24
14
26
57
15
10
-27
-7
-7
-1
-46
11
1
21
20
-10
-52
-28
11
-125
4
-61
10
8
-21
1
-6
0
-27
3
-13
20
-6
-7
-17
-7
0
14
-30
-3
16
13
1
61
8
8
-22
-5
-4
34
17
-3
-16
-3
127
9
11
7
1
16
-4
1
9
19
-11
-5
1
-29
-52
10
-77
-22
7
18
-76
-32
7
5
18
22
12
-1
-10
-5
0
-3
-49
1
22
4
-7
-8
9
42
40
-25
-13
0
8
5
-10
-37
-25
17
12
-21
6
-53
-34
9
-15
5
0
0
17
-77
7
17
-24
-12
1
15
-48
8
5
12
-3
7
-303
2
-19
-87
37
1
5
4
-2
9
-9
8
-8
-39
3
-22
-51
42
2
-5
-11
-235
-34
7
5
34
3
19
13
-5
-49
20
6
7
6
-16
28
-15
-11
9
1
28
6
5
5
-53
-29
-13
-85
-29
12
-5
31
10
-12
-22
13
-8
-60
11
-1
-18
-8
4
-24
-7
19
2
1
-10
42
-12
22
-5
39
14
8
-18
9
-2
-28
-60
60
-17
24
2
8
10
-34
-192
-4
-34
-134
-2
3
2
-9
13
6
-21
-25
2
-24
28
-9
7
-2
-14
8
-13
-48
-2
1
-11
-10
15
-7
-15
4
12
23
6
21
-23
10
0
-3
-7
-33
-10
34
18
18
5
-6
-3
2
-1
-1
25
14
7
8
-15
-19
-17
9
-7
7
-73
13
-3
-9
4
-5
8
91
0
-9
-4
-10
-18
-11
-9
-9
13
-1
0
23
16
-4
68
-6
4
-21
8
10
11
28
-17
0
1
44
17
0
-25
-19
4
0
-5
12
31
-15
-11
12
-49
-46
-68
-53
-23
6
9
-95
-24
-15
0
54
1
4
3
-9
-4
0
8
14
14
14
-1
-10
-6
-78
40
-45
-6
-9
5
25
-14
-3
-33
1
13
-2
1
14
-3
-19
8
-27
14
-9
-27
2
-224
20
28
3
-7
0
7
34
0
12
4
15
5
-265
13
-25
13
11
-10
8
13
-2
12
-4
7
12
-1
-14
-20
-56
49
-10
-13
-16
32
-41
-24
20
49
2
0
17
-14
-28
-9
0
-3
7
-19
3
-8
-24
6
-3
-44
17
9
0
-16
-6
0
68
-24
29
-8
20
-7
-5
-15
16
-22
-32
0
-68
-32
15
0
3
8
-6
0
5
12
-152
-1
31
-33
-10
-11
-1
10
25
-5
3
-40
31
13
5
8
8
15
-12
-215
-3
-4
-9
3
-6
2
-9
25
13
-28
1
4
-31
41
11
3
0
-3
11
-7
-40
-12
3
-230
-5
25
-1
-9
-5
13
23
15
18
-8
1
-6
-3
-10
-15
9
45
4
46
5
-3
-4
0
-33
19
-46
17
18
7
-12
-10
-21
11
19
-3
-70
16
7
-1
3
-5
7
-287
-4
-5
8
-59
-26
-11
-3
-9
11
-34
8
22
3
0
70
-31
1
-24
20
-34
15
1
-12
0
10
11
14
15
-19
0
6
0
-6
5
33
-4
8
14
-43
-42
-59
0
-20
13
9
-92
-24
-9
6
-60
5
7
7
-16
-5
0
36
18
3
36
3
-10
-28
99
45
21
-5
-11
2
45
-16
-8
-32
-3
11
4
-20
9
-5
-26
7
-5
35
-9
0
6
-16
9
21
3
-3
0
5
20
-5
14
6
7
31
-244
62
143
14
22
-4
9
12
6
23
-3
15
0
3
20
-29
-58
43
7
-11
-12
2
-43
15
2
46
0
-2
7
4
-23
0
-2
2
3
-25
-6
-12
-30
7
-3
24
4
6
26
7
-5
16
-113
-16
-53
-9
23
-29
-11
-13
17
-11
-9
51
-85
74
10
17
-4
13
3
0
4
5
36
1
31
-19
4
19
-1
5
48
5
0
-14
16
3
2
8
14
9
12
-126
3
-8
-55
-5
-41
0
3
25
12
-55
22
5
-39
48
10
-7
8
5
7
-7
-44
-19
1
7
2
16
-5
-58
1
20
-21
3
19
-13
12
0
-12
-1
0
-7
49
9
-64
13
-5
-2
1
9
3
1
8
29
7
-4
0
-7
18
15
13
-47
10
2
-2
-2
-4
2
5
-3
11
-2
-6
-16
3
0
4
14
0
18
19
11
10
47
-70
5
-11
3
-16
10
0
-11
4
2
14
11
11
0
-2
9
4
15
16
45
0
2
2
-23
-40
-1
13
-18
22
12
-58
-18
-8
6
71
16
13
3
-6
-2
2
0
16
6
20
2
-7
13
-37
43
2
-4
-5
3
4
-9
3
-29
6
10
2
0
6
8
-19
11
20
11
4
-3
4
26
12
19
7
-13
2
10
30
-4
11
10
2
3
-65
66
-4
14
11
-4
0
9
6
-39
-1
-1
4
1
22
-42
-37
21
9
3
-20
7
-35
34
2
38
0
-3
4
-5
-20
-7
0
8
2
0
6
-8
17
10
2
35
5
-1
3
12
-2
15
23
-14
-120
-6
21
-13
-9
-14
15
-14
4
-52
-75
81
12
9
13
6
-199
-1
12
3
-27
7
19
2
5
-29
6
8
11
7
3
-5
-3
4
9
0
9
0
13
-119
5
-3
-4
-4
-13
-2
3
17
16
-52
3
2
0
38
5
-251
14
1
5
-4
-42
-6
6
-16
0
16
-4
-2
2
11
-150
14
1
-13
17
-1
-3
3
0
-21
30
0
-13
12
-20
-3
-31
12
4
14
-8
28
11
9
12
-20
-154
16
16
-54
-25
-12
-120
-6
-2
-74
10
19
21
-3
4
3
11
-25
80
-24
9
11
42
12
11
46
28
1
-1
43
13
7
4
-6
2
4
19
-3
13
19
0
9
3
28
-16
9
2
13
-1
-13
-47
9
14
-23
8
10
-66
-18
-1
-5
11
-35
60
2
-2
1
4
-14
1
11
9
-4
-9
-5
7
-34
4
-4
-7
27
12
5
-1
-38
4
31
3
-4
15
9
-22
7
23
10
13
0
1
14
6
2
4
-11
2
15
-47
-1
-25
10
4
15
-234
3
5
13
19
-7
-32
10
9
14
-6
0
9
0
7
-9
-35
-10
11
-9
-20
2
-54
15
7
43
-5
6
-4
1
-20
9
-1
17
14
8
2
-3
7
9
0
8
10
-11
24
14
1
10
9
11
34
3
-20
10
5
-6
-49
23
4
10
32
0
5
15
-1
5
8
-1
1
17
7
-3
13
11
15
3
14
6
4
6
-13
-1
13
0
15
5
11
10
9
-135
41
-1
0
-3
5
5
4
16
3
29
15
5
17
-19
-108
5
32
-3
11
3
-42
0
6
8
6
0
3
3
-85
11
24
7
17
-6
8
-1
0
0
-8
4
22
5
12
23
65
-233
24
-5
9
16
15
23
0
-10
5
-24
48
11
10
-58
-4
-12
-120
-19
-3
-47
1
28
21
-9
-1
2
-3
-17
21
47
8
14
45
-15
19
49
17
-172
-9
53
13
1
7
4
10
9
18
-124
-17
-2
-1
20
-5
25
14
11
-4
3
-20
-7
-48
24
10
-14
8
14
-76
-28
-7
3
14
21
52
-5
-6
-1
-10
8
11
64
11
-9
-12
-5
5
-54
4
-12
-3
14
-5
-15
-6
-29
7
-33
-9
-29
10
-7
-19
122
21
4
4
-3
3
12
21
11
13
-4
-4
-164
-67
-1
-12
-48
-11
3
-301
-1
-2
12
9
-10
-48
6
9
14
-3
-2
13
-6
-10
-19
-46
4
16
-26
-36
0
-52
5
11
45
-7
3
-5
0
-42
11
5
5
19
-7
-16
-12
1
-137
2
7
0
-17
17
10
-21
6
10
1
29
-4
-31
1
3
-12
-46
11
0
0
27
-4
7
-11
-12
-15
6
2
-15
2
10
-6
9
14
15
8
19
9
-1
7
-23
-11
15
-3
-5
4
-5
8
7
-139
11
0
-10
-10
1
7
-4
9
-13
23
-20
11
-1
1
-56
-2
-302
20
35
0
-39
-3
5
0
-16
0
-2
1
-6
-103
23
1
3
-5
29
-10
-7
-11
-9
-5
18
-7
9
-2
-14
-4
-68
-2
-13
9
-303
14
-153
-9
-14
-18
13
10
14
-57
-13
-19
-129
-14
-2
-41
-5
17
13
64
-2
-2
0
-22
-10
-10
7
0
44
-6
-16
51
23
14
1
27
5
17
18
6
-9
-20
-3
-82
9
5
-1
9
0
18
-28
10
0
11
-4
-7
-49
23
11
-28
14
5
-69
-22
2
-3
10
2
31
-63
-10
3
-5
-11
31
26
9
4
-6
-2
7
-1
4
-24
-11
0
5
-11
-5
-29
-39
9
16
-23
22
-150
-31
2
-36
10
5
2
23
13
-8
10
-27
4
-152
4
-74
-1
-16
42
-20
14
-102
-2
0
7
5
-1
-50
2
5
14
-17
-2
10
-3
-5
-14
-44
-25
17
27
-22
2
-51
13
9
39
-1
14
6
-14
-40
4
25
7
20
-10
-23
-11
-10
44
-8
5
27
122
25
10
-20
0
0
-15
29
-3
-5
6
4
-9
5
15
-10
-6
21
7
-5
11
-6
4
1
1
14
13
16
-8
12
19
10
-4
7
-95
-5
4
5
-18
22
0
-7
0
36
-3
14
-161
-5
-4
3
-37
5
4
-21
6
-1
7
-17
-21
-7
16
-65
-2
-2
-16
26
19
-47
0
5
-6
9
-3
-21
0
5
-99
16
22
8
-7
14
-6
-229
-3
-20
22
24
16
11
-4
1
-3
-3
-2
-19
7
13
24
1
-2
-39
-28
12
-7
-6
-58
18
-11
-75
14
-2
-10
-4
15
-15
-244
-2
-3
29
-16
-6
15
2
11
41
-13
-22
50
6
9
-4
3
12
14
28
-2
-18
-117
25
-32
-18
0
-9
3
-2
12
15
11
-8
0
9
-14
-56
14
-55
-21
9
10
-69
-24
-11
2
18
-20
19
-14
-11
-10
-8
-7
-36
3
25
4
-32
-6
-4
21
17
-47
1
-2
4
19
-15
-33
4
5
5
-15
7
-382
-27
13
47
4
-126
-12
-11
7
28
11
21
-3
3
0
-77
42
-2
-40
-16
4
-95
-9
-10
-40
25
16
-52
0
7
10
-5
-17
15
-6
-6
-13
-45
-13
12
-13
-33
35
-52
0
-2
36
-106
4
12
-10
-52
-9
35
-23
-15
-17
17
-14
-16
-171
-133
3
25
-18
6
-4
-58
-17
-4
-19
13
-10
16
-19
-9
-19
10
-12
-51
-9
12
-7
6
-24
12
-1
5
3
2
13
15
-12
14
8
-214
-29
11
-29
-1
6
-7
-55
25
-12
-3
11
-16
0
-1
-184
-11
19
4
-16
-3
7
-2
2
-28
1
-2
21
-16
22
-25
-3
-7
0
17
-1
-48
-2
-7
-9
1
6
-20
0
-3
-6
16
3
-1
-14
2
-5
-11
-13
-33
21
23
31
13
-15
-7
-11
-21
-21
24
15
1
8
9
-10
-22
-32
10
-99
13
-65
14
-9
-25
-3
-1
-4
-14
10
3
25
-4
-13
-18
-2
-1
8
-15
13
20
8
4
65
12
3
-10
7
-7
20
74
1
-23
-74
194
9
4
7
-4
10
-10
1
19
15
-12
15
3
-25
-51
6
-238
-24
-1
2
-80
-27
7
-9
9
0
10
-1
-8
0
2
-8
-201
5
14
6
-9
-13
-3
31
3
-25
-5
1
8
-28
-12
-35
-36
11
-1
-14
12
-139
-43
4
15
-2
14
6
-4
-1
17
16
-30
-3
-2
5
-45
9
7
9
-5
8
-83
-3
-2
2
0
-21
-13
6
6
6
-16
9
-28
-40
-2
-39
-51
19
8
3
-19
-224
-40
-2
-11
31
-2
25
8
0
-41
-10
17
-1
10
-20
16
-16
-15
10
-4
16
32
10
9
-106
-27
-23
12
-18
19
-11
20
-5
-13
-12
12
-4
-67
3
-8
-11
10
6
-9
-2
5
-2
4
-19
33
-9
26
1
54
-3
-4
-75
-8
-3
-22
-48
64
-9
-1
-4
43
10
-7
-189
0
-24
41
-5
3
8
-6
13
8
-24
-24
0
-24
26
-5
-2
0
-8
14
-210
-53
-5
3
-33
-3
1
-12
-12
-1
14
17
22
14
-13
2
-3
3
-7
-26
-14
40
-2
17
-5
-17
-2
5
-8
-6
-30
14
18
8
-17
-14
-22
11
-13
-7
-68
11
3
-8
5
-1
2
38
5
-4
-7
-2
-12
-4
-1
0
12
-31
16
26
12
-1
66
8
4
-38
0
18
0
32
-27
0
11
20
18
-6
-9
-16
4
10
4
7
32
-15
-1
9
-33
-46
-71
-59
-14
30
4
-85
-24
-7
1
57
4
9
5
-19
-11
0
7
2
6
38
1
-16
-79
-83
37
71
-23
-14
-1
14
-19
-10
-35
8
12
0
1
8
-3
-36
12
3
94
-140
-35
5
-113
12
17
6
9
-2
9
24
42
6
6
-12
27
-73
1
-22
13
1
-11
2
11
9
0
-6
8
13
2
-20
-31
-51
22
1
-12
-27
61
-39
-6
47
42
-1
-3
15
-8
-24
1
2
0
24
-18
4
-12
-36
16
0
-67
-1
8
-5
-8
-33
2
29
-20
35
-13
19
-8
-21
-16
13
-12
-50
-13
-68
-263
0
20
1
5
5
2
6
8
-142
-5
29
-16
-131
-1
7
3
-11
-11
3
-29
20
-1
11
17
10
7
-25
-199
-5
26
-23
1
-7
-4
9
20
17
-31
-7
0
-37
30
7
5
3
5
8
-7
-46
-11
3
37
-1
31
-12
-6
-2
16
17
4
26
-7
1
-4
-2
-14
-21
0
46
8
11
9
-11
-2
0
-13
5
48
12
10
6
-15
-2
-20
10
18
1
-71
16
2
2
-4
-2
3
21
-3
4
1
-92
-14
-4
0
1
13
-18
14
27
6
7
69
-77
4
-21
11
-17
3
15
-6
6
-2
11
7
-1
-12
0
7
-1
-2
18
37
-4
-2
13
-37
-44
-35
0
-22
-5
-8
-94
-22
-18
5
-82
1
9
9
-19
-16
3
24
14
14
24
5
-10
13
90
45
20
-8
-18
-1
21
-14
-4
-35
-7
8
8
-6
10
5
-37
10
-17
17
3
11
12
5
8
21
1
3
0
6
30
0
8
10
-8
8
-265
20
-23
11
13
-19
-1
3
11
85
-1
13
-17
0
0
-31
-60
28
2
-8
-15
0
-38
-8
4
42
-4
21
10
-11
-24
-7
-1
0
21
-18
4
-14
-32
10
0
13
14
3
11
11
-5
17
38
-17
-58
-8
20
-9
-6
-8
15
-8
-10
52
-129
52
3
23
-14
3
-10
-4
8
0
50
-3
32
-10
12
29
3
5
70
-2
0
-16
19
2
5
6
0
13
16
-101
6
-6
9
-4
-91
-3
0
21
9
-49
26
3
-57
39
6
6
6
0
-5
-1
-41
-18
0
-11
4
26
-8
-66
0
19
-45
20
5
-6
3
-1
-9
-3
0
6
49
14
-61
0
-5
0
-8
-8
8
-28
5
10
7
-5
-8
-9
14
17
4
-50
10
3
0
0
-2
4
4
0
7
-1
-1
-8
4
0
5
13
0
11
24
12
5
54
-49
5
-15
4
-8
14
6
-7
3
4
14
10
7
-18
-2
8
2
15
3
47
-1
-5
16
-24
-40
-3
14
-9
23
-15
-64
-23
-2
8
69
10
6
5
-13
-6
2
-20
7
11
23
6
-9
11
-40
43
7
-5
-4
3
0
-22
-1
-27
9
7
8
7
2
9
-21
10
22
20
5
-9
4
29
2
14
8
-9
1
6
42
-2
12
10
-5
12
-204
38
37
15
16
13
3
3
10
-83
-2
-3
7
0
17
-35
-43
20
2
3
-20
8
-37
21
6
36
-2
-16
7
0
-12
-2
-8
8
20
-7
9
-9
-3
9
1
30
-4
3
2
8
-5
17
11
-10
-127
-8
20
8
-19
-13
12
-14
6
-72
-73
92
8
3
10
2
-132
0
10
-1
-15
2
22
-4
13
-11
4
9
-23
9
8
-10
-7
0
0
3
19
2
0
-110
4
-2
-12
-2
-4
0
7
18
17
-41
-6
0
-3
34
6
-253
7
0
10
0
-33
-6
7
5
4
26
-7
3
0
15
-129
10
23
-20
17
0
-2
-3
0
-19
37
0
-13
-7
8
-4
-39
-2
11
12
-9
19
23
1
8
-21
-32
10
12
-56
-57
-1
-127
-14
-3
-73
8
28
6
3
1
0
0
-7
69
-103
6
18
40
21
9
50
27
17
-7
56
16
8
0
-5
14
6
9
-9
-2
17
0
13
15
30
22
5
5
6
9
-13
-49
15
11
-15
5
13
-70
-27
-3
-6
9
-67
69
2
-6
1
13
-10
13
24
11
-7
-7
-2
4
-27
8
-7
-2
87
13
-1
-4
-46
4
68
10
3
8
7
-32
22
17
7
11
0
6
15
14
1
10
1
7
-3
-59
-1
58
9
2
18
-183
5
4
15
18
3
1
9
13
13
-5
-10
6
-1
2
-3
-35
3
11
-17
-22
1
-66
14
8
41
-1
11
1
-20
-25
2
-3
14
20
8
4
0
-8
8
2
7
-6
0
15
13
1
15
9
49
32
-1
-10
10
8
-17
-94
12
2
6
25
1
2
0
1
11
7
10
-1
8
7
-5
13
14
19
3
17
2
6
7
-21
-1
14
1
-4
2
13
7
6
-190
29
-3
-1
-1
4
6
1
15
-1
19
-4
8
15
15
-105
0
94
13
15
3
-46
1
7
5
6
0
2
7
-134
15
22
5
-3
-3
7
0
1
-5
-11
-2
23
5
11
-5
-4
-103
32
9
2
16
28
31
22
-10
6
-25
46
13
-8
-60
-37
-24
-129
31
-1
-68
10
28
8
-20
-3
4
-6
-20
24
87
6
6
34
6
21
53
21
5
-5
64
11
-7
4
2
-6
18
13
-55
34
4
-2
-4
-26
21
-24
5
-6
1
17
-11
-50
14
11
-23
20
11
-76
-25
-6
-1
8
47
73
3
-5
-6
-16
-6
15
3
-4
-2
-16
-9
7
-22
11
-6
2
22
5
-2
-7
-37
7
-36
-4
-7
7
0
-18
28
-10
6
10
-2
22
13
-1
2
16
10
-3
-75
-74
-1
-5
24
-2
-1
-293
3
5
12
37
-10
-16
8
10
12
-7
7
8
-3
8
-9
-40
-1
12
-26
-31
3
-56
12
12
43
-3
-8
3
8
-36
2
3
24
26
-5
-13
-8
3
13
2
9
22
-13
20
15
-13
12
9
25
30
0
-21
10
12
-4
-53
9
4
-5
22
7
-10
-11
-12
-58
5
0
-56
-11
9
-3
7
16
19
4
17
-2
4
10
-7
-11
24
2
22
-3
12
12
13
-125
16
-2
5
-12
4
5
8
8
-1
16
-4
22
-5
26
-23
-1
25
-5
29
12
-43
0
10
0
-26
1
-8
3
-25
-51
21
7
9
4
24
0
2
-6
-20
-1
17
1
10
11
1
-12
-27
-13
19
12
-307
22
-7
-11
-17
-21
22
12
12
-58
-47
-12
-140
-76
0
-44
-1
23
4
30
-7
-6
-73
-12
0
-71
8
22
33
-13
21
50
9
18
3
28
15
21
10
-25
58
-1
12
-79
-42
13
1
58
2
18
2
11
0
-9
-1
-12
-47
20
15
-17
10
15
-68
-37
-4
6
11
1
41
-3
-6
-6
-11
9
22
43
4
-4
25
3
-2
3
0
-19
-4
-4
5
1
-5
-32
-148
9
2
-24
6
3
-28
6
-18
-2
11
-1
6
10
18
0
-130
26
-147
18
-102
13
40
-31
-8
-2
-112
-1
-6
8
17
-5
16
7
6
11
0
-38
15
-8
4
-16
-43
3
13
34
-1
-16
-57
13
7
38
-1
15
4
-15
-40
7
55
9
37
-7
-17
-12
0
79
7
14
-3
99
5
15
-216
5
3
-1
24
-12
-2
-7
5
-16
-1
-4
-13
-10
13
-4
7
3
0
1
4
7
23
-9
12
-8
6
20
21
-3
3
0
4
5
-5
-27
-78
3
0
0
25
-3
8
-133
-1
3
17
-56
2
3
-16
-1
-6
-8
4
-229
-10
24
-79
1
0
-236
32
0
-51
3
-22
-6
1
5
-19
1
4
-56
8
8
2
1
8
-88
-3
-10
-28
-14
17
16
9
10
-5
6
-33
7
4
11
18
19
13
-2
-33
-9
13
-14
4
-66
-1
-37
-76
109
1
-16
-8
11
-22
-270
-7
-7
37
-10
-18
20
5
7
41
11
10
53
15
9
2
6
10
22
75
169
-93
9
17
-5
13
5
-4
-29
-10
12
0
9
0
-18
-2
-16
-52
11
8
-30
22
10
-75
-24
-20
-12
16
-1
17
-196
-14
-6
-1
3
-54
13
-9
-10
-28
-15
-2
20
-1
-47
33
1
0
2
-20
-23
29
3
-9
-16
-9
-32
-33
0
15
0
0
11
-17
13
12
6
46
9
1
2
-92
-11
3
4
-4
5
-98
-7
-2
1
17
3
-29
2
6
6
-43
-7
-6
-2
-9
-21
-42
-1
18
-27
-31
39
-48
0
-3
37
-70
11
10
-14
-48
-21
106
-2
20
0
12
-12
7
8
-130
-5
18
26
12
-2
-44
-19
-2
-23
16
1
4
-17
-14
-3
1
1
-133
-10
4
-3
3
2
-9
3
3
0
2
-10
16
-10
12
21
18
-3
1
-253
0
14
-6
-42
62
2
0
52
18
-6
14
-135
-7
-9
-22
-73
0
11
-9
-6
-21
-20
-2
67
-20
18
-8
0
6
-12
22
9
-50
1
2
-20
2
12
-16
1
1
8
4
-39
4
-21
2
-8
-305
-8
-27
-2
24
30
7
-9
-19
-8
-12
7
9
-5
-4
19
13
-32
-6
-26
12
-55
7
-66
12
-3
-33
-19
4
-6
-8
12
-2
21
0
-18
-20
0
-4
16
-7
36
15
12
-8
59
19
6
4
6
23
10
113
-38
22
-86
11
4
0
10
7
38
-6
8
16
9
0
-11
16
-25
-51
0
-18
-16
-12
6
-79
-34
69
-8
3
9
17
9
3
-12
-6
21
6
7
20
24
17
-59
-3
28
7
-26
4
0
0
-7
-9
-34
-74
12
-21
-26
-5
-8
-40
10
0
-5
-12
-10
5
0
30
-1
-120
16
5
9
-60
101
2
16
-9
25
-95
-1
-8
4
7
4
-3
2
5
7
-11
6
-64
-31
1
-50
-46
8
14
-26
2
-108
-39
2
-55
33
-4
4
7
-13
-44
7
41
15
22
-26
25
-12
17
16
-2
34
23
8
-1
-108
-248
-15
-6
-29
19
-28
16
0
-18
-18
0
-11
-64
1
-6
-1
17
1
-5
-2
6
5
9
9
14
-10
16
22
91
-7
0
-11
-5
0
-19
-30
-176
-45
0
-62
-6
-10
-20
-152
-3
-260
19
-13
4
14
6
0
-5
-31
-12
-169
-18
24
-4
1
3
12
-11
0
-54
2
-18
-29
11
15
-31
-3
-4
12
5
-2
11
-27
1
3
-5
0
-28
-34
31
5
11
5
-10
-1
-4
-19
21
10
11
18
9
-48
13
-20
10
0
-2
-68
6
0
-10
1
1
-3
-13
4
9
-16
-8
-10
-1
7
0
11
-64
18
20
4
-3
63
4
5
-6
1
29
30
44
1
-2
-9
60
8
0
7
-29
-3
2
0
23
23
-13
-24
16
-28
-50
-39
-1
-27
-3
-20
-85
-24
-35
6
59
7
11
10
-32
-8
-6
32
7
14
-6
30
-16
-7
-11
33
2
-10
6
0
0
-13
-14
-35
2
11
0
-2
0
3
-35
8
4
13
7
-300
4
-32
4
10
12
23
0
10
16
0
3
13
15
20
-108
0
-14
8
12
4
10
8
7
5
-18
14
-51
6
-17
-44
-47
19
13
-9
-25
28
-42
-29
7
37
3
39
13
-6
-30
-6
4
-3
7
-9
11
-11
-32
11
0
-319
23
4
-8
6
-16
-3
7
-23
20
-10
15
0
9
-4
4
-4
-131
-15
-18
-15
28
17
-8
7
5
-4
8
-16
-175
-5
24
10
18
-33
3
-6
-26
-3
-4
-11
12
28
-2
60
-11
-2
42
-196
3
-1
-27
-6
-5
-11
-3
8
13
-24
-20
10
-26
28
5
7
4
-4
12
-45
-46
-10
1
5
1
102
-10
-1
-3
11
10
-42
13
-14
1
-7
13
-7
-21
16
37
12
-1
7
-22
0
3
8
21
-63
4
24
10
-47
14
-19
12
19
0
-67
10
12
0
-7
0
0
6
-6
19
0
-120
-7
0
4
2
13
-4
32
18
12
0
69
34
6
1
3
-11
19
11
-4
4
15
13
9
7
14
6
8
3
5
11
34
-2
-22
5
-36
-48
-24
1
-17
-30
-15
-86
-32
34
10
-113
7
10
9
-5
-18
0
6
-3
7
19
34
-6
25
68
45
25
-5
-5
-2
-1
-41
-6
-37
6
8
9
-2
8
11
-31
6
1
36
3
-6
11
12
33
14
15
14
4
8
21
10
8
12
2
0
-291
10
-22
9
24
9
0
-3
12
31
-2
7
-48
-3
-30
-52
-49
23
9
-18
-15
-20
-45
-9
26
36
-3
-7
9
-12
-27
-5
-1
-5
2
-5
-3
-11
-18
13
2
33
19
3
12
15
-2
13
9
-24
-46
-18
21
-56
-44
-16
11
-14
-21
50
-48
2
7
18
-13
5
-10
1
6
-15
29
0
28
15
18
3
5
8
-125
0
-5
0
20
-19
2
-1
26
9
-28
-93
5
10
20
0
-81
-32
34
12
12
-20
15
8
-28
37
8
22
8
-2
0
10
-41
-15
7
-12
0
81
-10
-86
-3
17
-48
35
-3
-18
8
4
-2
-15
-6
12
42
8
-38
0
-2
2
5
-4
0
15
1
14
12
-8
2
-12
16
13
6
-52
8
1
0
-8
0
-1
-7
-3
9
-1
-7
-3
7
7
11
10
1
26
20
5
2
56
0
7
11
-4
7
10
-9
-10
2
13
14
10
8
18
-2
5
1
18
12
50
-11
0
14
-29
-44
-4
13
-17
18
-23
-66
-22
-12
3
73
10
8
5
0
-4
0
-11
7
-3
46
-6
-8
8
-17
41
9
-7
3
3
-4
3
0
-29
4
8
9
0
4
6
-23
9
12
6
6
16
3
21
5
13
3
-8
2
5
51
-3
5
12
16
8
-206
23
-11
11
12
4
9
0
11
-259
-6
-1
-2
1
21
-36
-41
18
8
-2
-25
10
-40
-18
17
32
-3
13
12
-1
-14
-3
-9
2
2
1
6
-9
1
8
0
24
5
1
12
8
-6
15
14
-12
-117
-4
20
30
-26
-4
9
-9
3
-57
-35
-171
20
5
8
3
-27
-4
9
-1
-4
-2
23
7
11
-22
11
7
12
7
-12
0
-12
13
-8
0
24
2
21
-117
3
-3
-6
-3
1
-22
5
17
15
-26
-19
2
5
32
8
-250
6
-1
16
9
-33
-12
4
0
-7
30
-7
42
0
9
-102
14
14
-17
15
-3
1
0
-2
-16
38
13
-3
25
-17
2
-4
0
11
14
-2
6
21
6
16
-18
2
9
-26
-66
-63
-15
-127
-19
-5
-93
12
31
7
5
-1
-3
-3
0
59
1
5
11
26
31
23
57
34
6
4
72
18
-2
3
2
20
4
6
1
-5
8
0
12
24
28
0
1
-4
-6
-20
-22
-60
7
9
-38
7
12
-74
-23
-1
4
7
-117
75
0
1
-1
-7
-14
16
28
10
-8
-5
-7
3
6
8
-3
-9
142
14
5
-2
-62
1
87
5
-21
3
10
-31
13
0
7
7
-1
11
13
18
-9
10
-2
14
-8
-43
-1
24
3
11
9
-207
8
7
16
28
-2
-23
16
16
7
-5
0
-1
0
-5
1
-35
6
8
-14
-11
0
-98
13
10
44
1
14
12
-25
-31
3
-7
44
8
5
8
3
-4
10
5
9
27
1
5
11
-2
10
11
88
29
2
-4
1
3
-3
-128
-1
-4
10
12
-1
31
21
0
-5
7
5
77
13
7
-9
14
22
20
-10
15
4
8
6
-18
8
12
1
27
2
19
11
15
-195
1
-2
-4
-13
3
6
0
16
7
-4
-8
11
13
24
-95
2
23
19
38
5
-43
3
14
6
15
5
27
8
-145
11
19
10
12
9
26
0
-1
-2
-26
8
24
12
11
28
-2
-82
-11
14
3
16
45
6
5
0
5
-25
15
11
-10
-65
-140
6
-143
10
-3
-93
12
36
2
-20
-5
7
-8
0
17
142
6
28
25
84
21
59
22
16
0
79
14
16
3
3
0
0
18
-6
-14
27
-3
14
-182
20
-2
2
-1
8
-14
-23
-56
9
9
-13
6
21
-77
-45
4
-33
9
40
77
-1
0
0
-228
-2
17
54
-23
8
10
6
2
14
12
-9
4
50
10
2
0
-53
14
-7
42
-12
13
5
-23
16
4
0
11
0
-25
16
4
-15
23
3
8
-12
-66
-4
80
18
-3
7
-202
9
6
18
24
9
-8
13
14
12
1
0
0
0
0
1
-35
10
7
-35
-4
4
-81
10
9
42
8
7
5
-13
-38
-24
12
30
29
-4
-2
-4
-3
21
6
11
10
15
24
11
-8
8
10
75
28
-3
-5
-1
17
-17
-49
-7
0
-11
10
-3
30
42
-18
-227
9
11
-160
-15
9
-5
6
23
20
21
19
7
8
6
26
-11
18
-1
27
4
-9
7
11
-127
-12
-1
4
-13
8
6
-22
6
4
-6
-2
18
-14
27
22
2
9
0
24
6
-47
8
10
10
-279
10
-114
6
-16
5
14
9
20
15
47
2
1
-5
-29
5
17
13
12
-3
-4
6
-2
27
9
15
-312
-20
9
-9
1
-15
17
8
-5
-68
-52
-44
-147
-159
-4
-56
0
26
5
35
-5
-4
-20
-26
1
2
7
16
-18
14
32
52
19
-1
7
26
18
18
14
-8
107
12
0
-16
-14
3
-1
-9
48
14
-13
1
-12
-7
-17
-17
-55
13
11
-41
10
12
-74
-31
-7
54
5
-44
49
6
2
-6
-27
-6
-8
5
-14
-9
-20
0
0
13
-5
-3
20
-3
3
1
-11
-54
-1
3
0
-12
-47
-13
-30
7
-20
6
9
1
-22
14
28
-77
19
18
-214
13
-116
-5
20
1
-1
-1
-135
1
6
5
24
9
-21
21
7
8
-7
-32
-2
-3
-3
-5
-32
9
9
-6
6
-13
-76
11
11
31
32
-1
11
-25
-40
14
57
35
32
2
-7
-11
-6
-13
0
11
41
35
45
22
5
-11
4
26
21
7
-8
-5
-6
-7
-27
0
-10
-15
2
0
7
32
-5
-27
6
-7
9
-1
13
-6
4
22
22
-14
11
-1
3
6
-16
-35
13
12
5
-7
23
1
27
-189
0
1
10
-97
6
0
-15
-3
-5
-55
-7
7
-7
21
-53
0
-11
37
38
16
-56
3
-255
-3
28
5
-4
3
23
3
3
20
11
15
17
3
7
2
-44
6
11
15
10
9
-21
2
-36
3
14
2
35
3
4
-7
-7
-6
18
5
28
-65
-7
3
-107
43
-3
-28
-3
16
1
-12
-5
-12
-26
13
5
20
11
34
8
4
15
50
18
9
8
15
19
23
43
28
-110
24
-27
0
-6
16
3
93
-101
8
1
5
16
-5
3
-22
-55
10
-12
-19
0
9
-72
-38
-5
-53
11
3
24
11
-3
1
-35
30
24
28
-4
16
195
-44
-3
19
-12
-259
60
-1
2
-9
3
-52
77
13
-4
-14
-36
-18
-33
0
12
-1
4
6
6
11
7
-243
121
4
9
9
-71
0
17
0
0
28
-140
0
-5
5
12
17
-25
22
4
10
6
3
3
16
-2
-14
-33
8
8
-17
19
42
-72
0
-9
29
-113
-1
13
-8
-40
-11
148
38
23
-4
6
-7
-8
15
-156
-9
42
11
23
8
-17
-42
5
-23
12
-9
12
-21
-9
-28
-15
5
13
-18
-3
-17
24
23
-30
-14
6
8
9
-2
10
-7
6
26
28
2
-142
3
-4
-14
-2
-31
38
1
22
31
23
0
4
-123
-1
-2
-12
-207
4
6
-2
-4
-7
-57
-4
112
-29
19
-11
0
4
-2
17
0
-58
6
52
-1
-30
7
-96
0
6
6
0
18
24
-4
-5
-169
2
-8
-50
8
13
23
13
-9
-18
1
13
12
31
9
-8
9
10
-37
18
-15
11
-29
10
-65
5
-40
-41
-42
-1
-13
-5
6
0
10
9
-14
1
9
-7
10
3
13
-19
9
0
55
18
7
20
2
18
33
55
-30
12
-14
-3
5
4
-8
-13
12
9
7
11
11
0
-49
-16
-25
-57
6
-7
-35
28
-16
-76
-30
9
18
-8
0
20
-258
-9
0
-11
0
12
12
-11
-9
-36
-9
-2
21
2
-14
25
4
-2
2
-18
-50
12
12
-19
-8
-41
-17
-37
6
2
-5
3
0
-12
-1
40
-56
17
-5
2
16
-85
30
2
11
-6
6
-149
-4
-3
0
1
30
4
12
4
8
-53
21
-96
-16
-4
-43
-33
7
4
-14
-1
-3
-53
-13
10
29
28
5
12
-14
-39
7
51
23
5
-16
22
-11
5
12
-7
47
37
-6
25
-132
-12
-23
1
-46
15
7
17
-8
-3
-6
-14
-4
-76
-4
-9
-13
17
19
-7
14
5
-19
-3
-9
3
-4
10
26
-6
-16
36
-15
-18
-166
-8
-29
-25
-195
-15
224
1
-8
46
-132
4
25
15
-4
7
8
5
-10
-2
-53
-14
17
-7
24
-2
10
0
3
-5
7
-55
4
-172
-19
-2
16
-9
-4
0
10
-5
-14
22
12
-14
0
-203
-7
-45
-1
21
-3
4
20
-17
2
-9
-44
32
-11
-6
37
7
-84
29
-18
10
7
19
-64
-3
12
-17
-8
-3
-7
-4
-19
14
-18
0
-15
-28
5
-4
12
-68
31
-7
10
-18
61
8
6
-5
-7
29
5
32
1
0
-11
1
4
-13
12
-294
0
4
0
15
22
7
-28
-18
-27
-51
-27
-8
-16
0
-17
-75
-38
2
9
59
-7
19
19
-4
-62
-2
19
-4
9
-15
76
1
-3
-9
26
2
-4
13
1
-6
-49
3
-44
7
3
-21
-14
-1
5
-35
2
11
2
5
13
-1
-13
18
-18
11
14
5
6
9
-13
13
9
-6
6
-153
2
-12
4
26
-2
8
5
6
1
15
21
-225
24
4
-59
-32
6
10
-4
-9
39
-63
-12
-30
26
9
-11
18
-19
-34
-2
7
5
12
-9
23
-5
3
10
8
-301
10
-1
-1
15
-3
-23
16
-42
11
-37
17
16
-92
-24
-11
0
-7
-25
-4
-29
9
10
-23
-13
3
9
1
-20
-18
-2
16
23
24
-2
-168
-6
-34
4
15
5
8
67
-21
29
20
-7
-26
-155
0
3
-57
-3
-3
-16
-7
-2
17
-37
-53
0
-17
27
10
22
9
0
22
15
-49
-7
-1
-6
0
7
-9
-9
-1
4
1
47
69
-14
-4
0
11
-6
-19
23
26
17
-2
10
-23
4
15
6
20
29
-4
15
11
-74
23
-35
12
16
-7
-72
0
28
-8
-12
-1
-7
-15
-6
23
-7
-10
-5
-7
10
0
7
10
39
-4
0
9
69
-2
5
9
-5
-38
28
11
-9
-1
4
11
2
15
12
-8
13
2
5
14
26
-6
-11
4
-39
-54
-19
3
-33
39
-25
-84
-31
-1
3
-120
4
13
22
-1
47
0
-16
5
11
11
10
-6
10
25
35
5
-7
8
-1
-15
1
-10
-36
-6
2
8
15
6
7
-26
8
9
8
5
-2
16
0
13
0
0
-4
7
4
9
0
1
11
-13
4
-184
3
-23
9
-3
21
9
-5
14
-16
9
14
-93
7
-16
-61
-42
16
6
-5
-8
-7
-60
-19
20
32
-2
2
19
-14
-30
0
2
-2
-5
7
-12
4
-42
10
6
47
9
2
27
8
-8
3
12
-32
-20
-4
20
-53
-12
-1
-5
-15
-13
32
-16
-68
2
2
-14
3
-4
-7
1
-31
14
3
21
24
6
-21
23
10
-47
-56
0
9
7
-245
-5
-2
31
8
54
-99
10
10
18
0
-115
-67
15
2
19
-26
15
7
-26
32
8
17
0
-1
0
-2
-38
-17
22
-15
-1
34
-7
-83
0
3
-5
-7
52
-20
12
5
12
0
-23
-5
33
12
-4
-1
-8
7
-2
-3
27
-10
-5
8
11
-7
11
-1
15
7
4
-54
2
17
-4
-1
-3
-11
-6
-3
19
-6
2
-3
0
0
5
12
0
13
9
7
8
59
-11
7
-8
-14
17
9
-2
-4
2
26
18
5
10
10
16
5
2
20
10
47
-10
5
-4
-30
-51
-9
7
-9
4
-16
-62
-38
4
1
85
-10
11
0
20
-277
3
-14
-4
3
3
2
-6
7
-11
33
-3
-8
18
1
-15
10
3
-41
5
2
9
-17
1
11
-27
6
6
9
7
8
25
13
8
5
10
-13
7
3
37
-2
14
9
18
-5
-202
11
-11
10
14
-2
5
193
13
-40
-4
-12
-15
1
-17
-52
-41
11
0
-4
-12
12
-56
-18
26
25
1
-11
20
-4
-21
-3
-9
-1
11
2
5
0
0
3
5
30
1
2
-17
6
-8
6
10
-18
-90
0
16
56
-62
-18
-4
-5
0
-49
-10
-173
11
27
5
5
-3
-8
7
20
11
-6
18
13
10
19
13
8
8
12
-17
15
-10
11
6
1
9
-7
24
-125
7
0
10
2
-1
-46
14
10
28
-19
-20
-5
-3
31
4
-313
5
0
-7
18
-35
-20
3
-13
-16
21
-2
65
3
1
-35
15
-5
-11
15
-5
11
0
-20
17
31
7
-1
-8
-28
31
38
8
32
12
-1
-27
13
7
14
-23
20
17
1
-94
5
7
-128
-9
-7
-265
22
27
-3
-15
-1
-8
-22
0
24
21
2
61
7
-16
18
65
42
5
7
80
13
35
0
10
-7
3
13
3
16
11
-2
-2
0
32
11
-2
-5
-2
-23
-45
-71
7
3
-31
0
15
-85
-65
2
15
7
-59
81
6
4
6
32
7
34
-20
27
-31
3
10
-2
7
15
-7
0
159
14
13
2
-102
10
104
7
-9
-29
7
-40
5
-48
26
7
-1
16
8
-4
-32
2
-8
23
41
-33
0
49
13
24
23
-208
11
7
15
-1
9
-54
20
25
9
-2
15
-11
0
9
3
-41
14
6
11
0
2
-201
14
12
47
5
0
28
21
-29
-27
-15
50
10
-5
28
7
-2
8
14
11
2
14
11
12
1
6
16
108
21
-3
7
6
16
-30
-150
-29
-4
24
5
5
2
2
15
-77
13
31
-30
-1
12
-4
5
30
12
-35
24
-3
13
6
-35
9
13
-4
60
2
32
26
22
-241
4
-1
-2
-26
10
9
25
19
7
-52
9
16
0
34
-110
12
-11
12
4
8
-46
1
7
17
72
2
-206
4
-162
3
15
25
18
10
57
-1
4
5
-95
32
17
19
15
-11
-15
-286
-41
-6
36
2
55
-82
4
-16
15
-33
12
10
14
-102
-113
-25
-124
13
-2
-112
15
52
3
-43
0
-3
-12
11
1
46
4
32
-128
-36
59
69
42
3
13
75
12
13
-11
-12
-17
-4
-3
-8
15
6
-4
2
-3
26
-14
-10
-13
-2
-10
-50
-64
2
1
-49
-1
-4
-94
-42
3
22
9
77
76
-6
6
3
-35
-43
30
-18
14
53
6
-32
-4
11
18
-6
8
69
8
-17
1
-92
17
-37
15
16
-39
12
-27
-9
1
-7
-2
-1
30
10
15
-109
13
-9
40
50
-51
0
25
13
-8
43
-193
11
11
5
26
7
11
32
20
13
8
8
-14
2
3
11
-28
11
-1
-12
-4
3
-195
17
8
45
2
23
11
-98
-31
-26
9
73
-44
-21
0
-2
-15
9
23
15
-4
33
9
12
-4
-5
13
106
28
0
-4
-24
12
-13
-56
-10
-1
-5
-5
0
10
-22
-22
-52
10
6
37
-1
13
0
1
30
13
30
8
-4
7
0
-16
-17
16
8
19
-16
16
25
54
-232
19
-5
2
-42
9
0
7
6
24
-66
-28
20
-17
25
-32
9
-4
16
36
8
-53
-2
35
11
-231
6
23
0
9
-11
2
30
16
32
54
3
7
14
-83
15
10
18
13
-6
-15
22
47
13
29
18
-191
-43
2
5
23
-33
11
8
16
-103
-30
23
-117
-46
-7
-67
16
41
3
3
-2
3
-49
0
5
14
12
46
-11
-18
81
60
25
-2
12
56
27
-1
17
7
85
12
6
1
47
8
1
45
123
21
8
-3
-5
-15
-17
-31
-67
9
-4
-40
16
10
-93
-109
-4
3
8
15
54
4
7
9
-66
3
21
15
50
-49
-2
-11
2
0
2
4
24
2
-4
2
1
-86
26
8
40
-35
-46
-9
-30
-13
-3
20
8
4
-3
8
-6
-156
30
-4
-295
12
-89
-2
29
-5
39
27
-156
8
5
1
31
14
-42
39
12
15
5
-10
-18
2
-39
1
-23
8
-1
-31
22
-4
-182
4
7
30
-9
-1
13
14
-40
-11
68
66
-27
-7
25
-6
-6
-4
29
13
-14
3
15
21
27
-30
17
55
23
-2
11
18
2
-40
-43
-11
-3
-10
-11
-9
28
26
2
1
13
8
24
-44
12
-5
2
33
22
-47
35
3
13
2
-6
-47
14
6
15
19
-17
0
8
-141
-7
7
-12
-252
11
0
58
6
0
-113
33
3
-25
23
-31
12
-27
7
34
20
-56
7
-3
13
104
11
-150
-4
14
-13
2
15
50
18
24
0
2
6
-112
18
7
33
17
-15
-26
27
-55
-33
23
6
22
-62
-7
9
8
-13
10
7
54
-88
-2
-11
-88
55
-9
-43
0
39
14
-50
0
-11
-62
-97
1
26
19
6
-90
12
35
56
37
1
9
22
25
-12
37
37
-135
52
-9
2
44
34
-4
28
3
11
-13
9
-3
-3
-26
-33
-68
9
-8
-59
-2
16
-86
-70
15
6
10
-4
33
9
14
8
-12
-31
-9
10
36
1
60
-7
1
5
-5
-1
31
4
0
13
5
-83
-23
6
12
-2
-106
-16
-25
-12
-32
-5
-4
6
-33
6
62
-254
-19
-16
28
4
-65
-3
16
12
37
36
-150
7
9
-9
30
-16
23
47
11
8
-13
11
-9
1
4
-8
-31
9
-10
-8
25
7
-221
-4
1
36
-264
8
16
-23
-34
1
124
76
-21
-27
-26
-4
2
0
-151
-23
0
21
35
15
14
-91
-1
1
23
17
14
-50
7
-28
-45
-8
-12
0
-15
-217
7
29
-26
-1
13
0
-6
-12
8
-6
6
34
21
38
16
4
0
3
-11
-13
4
9
-10
57
-20
23
8
-126
14
20
11
-242
12
8
-18
10
42
-143
-73
67
-7
20
-15
19
4
13
55
13
-50
7
139
-3
-63
9
-3
-3
11
0
3
21
57
38
-12
0
0
14
-89
-17
11
-11
19
30
-14
7
37
-8
23
0
-30
-35
-2
-35
48
-17
7
3
52
-73
1
3
-48
-6
-10
-32
23
24
10
21
-2
-22
-9
53
6
1
-6
14
-40
19
2
54
27
0
30
-8
-23
-22
56
-1
-8
-6
-25
1
22
0
8
26
10
14
28
5
7
-38
-37
-29
-79
21
-17
-37
7
-4
-74
-164
10
17
-8
41
27
0
-5
13
-13
-25
9
49
6
-29
-30
-19
-5
6
16
-5
52
16
-16
-3
14
-79
23
-3
-58
-10
-47
0
-27
1
42
21
2
15
9
-1
0
-108
6
-29
13
6
-87
46
1
9
27
38
-144
2
-7
-8
66
13
-17
24
10
12
10
4
-48
-243
-8
-29
-22
15
-2
8
11
-27
-192
-5
5
23
0
-7
28
-15
-38
4
77
19
-8
-24
-3
-11
-20
4
13
51
54
-7
60
-152
9
-76
14
-50
12
-16
24
50
54
-40
-32
-15
8
18
-7
30
3
69
5
-32
12
22
12
28
2
3
11
30
-4
-25
-90
0
0
-17
-27
-72
25
-2
-11
-38
-14
-16
39
-154
17
7
12
5
19
18
36
10
33
-153
52
32
-4
26
-12
20
4
-10
42
9
-50
0
19
6
35
35
0
1
11
-4
-7
6
30
9
-12
-134
3
1
-73
31
11
19
19
0
-9
14
-29
-21
27
-8
-8
-12
3
-155
38
-32
2
13
30
-64
-8
0
-30
-23
-7
-23
1
10
16
-26
4
-19
-15
5
-6
3
-73
24
-68
17
-35
65
6
0
1
-17
9
7
45
5
4
-1
-16
5
14
17
-21
8
3
22
16
21
-14
-11
-25
-30
-49
-16
-5
-50
33
0
-70
-54
27
-18
56
-11
14
-245
10
43
-2
21
13
41
-14
-18
-11
-1
-8
11
-3
-7
26
9
-2
-1
-12
-60
-15
2
4
-3
-35
-1
-28
0
-12
-20
-4
7
0
0
21
-112
0
5
13
1
-2
-8
4
8
0
21
-162
7
8
-6
7
-42
14
22
10
10
-14
18
-90
-26
-22
-68
-10
4
0
-34
7
31
-184
-8
10
23
3
-47
27
-28
-26
14
0
12
-3
1
36
0
-15
0
25
-293
9
8
37
8
0
-46
-6
-46
14
0
26
-45
19
-20
-41
-6
-25
-27
-11
23
-14
29
-13
-10
10
-27
-12
-56
-16
0
15
22
-10
41
16
-14
1
-35
-4
9
0
136
-54
51
30
-17
34
-141
11
16
-6
-16
15
-2
19
-3
37
-113
-26
-14
-16
27
-1
35
-6
-5
31
14
-43
-2
13
-7
-33
6
1
0
3
-14
-9
29
-6
35
-19
-3
-60
-7
-37
19
19
12
13
39
-26
13
17
-19
1
23
0
-23
2
-89
34
-51
7
21
17
-73
-8
33
-33
-5
0
-19
5
-6
16
-11
-26
-13
-29
-15
-3
-3
5
-3
-32
7
-9
72
2
2
-19
-17
-121
19
6
-1
-12
2
-4
-8
17
13
19
-18
-8
-2
1
12
-11
-57
-28
-41
-65
-27
-12
-31
-5
5
-73
-83
-19
2
-128
5
7
21
-20
37
-8
-38
4
17
-26
-16
-6
20
38
18
39
-5
19
16
-31
0
-14
-69
10
-11
-16
8
-5
0
-21
0
-2
14
1
24
-14
-6
11
-53
-5
-15
13
-5
-10
1
18
3
5
-20
-195
8
-24
0
23
12
13
259
14
-13
3
7
-73
-22
1
-72
-38
8
3
25
-6
3
-185
-2
25
27
22
-23
49
-23
-29
14
0
-2
-4
-8
-12
-13
21
-2
14
63
12
0
-13
7
-7
-42
17
-48
-20
-10
21
38
71
-32
-29
-24
-15
37
-12
59
-36
-26
-16
-4
-5
1
7
-33
-12
1
15
25
8
-56
9
0
-9
37
-26
1
0
-7
-25
-9
20
17
62
-150
16
-3
27
4
-114
-64
33
-1
-29
-46
-37
16
-40
37
-11
2
-4
0
32
-1
-43
-41
18
6
-19
57
-7
-38
6
-15
-2
51
39
-27
-4
23
6
20
-23
11
19
24
5
24
-28
15
-16
7
21
28
1
-1
8
9
7
-26
12
5
31
-68
-2
-22
-31
-5
-4
-29
4
0
15
-11
13
-15
-8
21
-1
1
10
45
-9
30
-25
64
-24
5
9
-14
6
15
-2
6
0
8
5
11
16
15
-1
5
0
26
14
31
2
0
-34
-35
-53
-14
-3
-31
41
12
-65
-53
13
-6
101
-14
13
13
47
51
0
3
10
34
-18
-32
4
29
-14
22
10
-1
29
4
-24
-13
16
-65
-1
1
-11
-29
12
12
-29
1
0
9
6
2
0
9
-1
-16
0
-34
13
-4
22
2
10
4
32
22
-208
13
-4
9
16
-6
-8
264
15
-11
7
-5
-17
-5
-57
-71
-44
14
-9
-27
-6
5
-220
-19
20
28
19
-24
36
-9
-24
5
-3
22
-30
-6
12
-10
-26
-1
15
23
11
7
-4
3
-1
-8
-1
-33
-89
18
21
39
37
-12
-31
-7
0
-60
-4
20
22
-17
7
-14
-12
-27
-3
23
8
-2
13
15
-4
28
9
0
32
19
-41
23
7
12
-27
-3
49
-28
25
-246
9
5
4
11
8
-13
0
5
46
-39
-5
-19
-5
27
-13
-243
0
-1
15
23
-38
-18
5
0
-33
36
1
9
14
-19
-18
37
19
12
17
8
13
9
-36
45
23
26
14
43
-12
31
43
-35
-13
16
2
-81
3
25
30
-25
28
13
-15
-218
46
-5
-108
-23
0
-81
10
22
14
-30
-9
-207
-62
-18
2
27
8
62
-65
-64
10
63
41
-7
-21
78
-15
51
-28
3
0
-27
-1
31
6
40
-21
6
-3
9
-17
1
-27
-29
-33
-125
-59
-3
-17
18
19
46
-185
-160
3
38
12
-37
72
-3
-40
29
23
-80
22
-41
-31
-40
9
-31
-13
11
28
-6
-14
163
14
44
23
-166
59
118
-54
41
-41
8
-39
-31
-55
21
-1
-11
21
2
-18
-90
0
-47
36
45
-18
5
38
23
-1
-4
-258
20
-5
20
1
34
-57
26
28
4
8
110
-14
-15
27
5
-55
14
-19
10
-52
5
-217
3
19
59
-9
-8
28
17
-23
-29
-9
66
-51
-15
59
-3
-29
-5
9
12
-46
31
-36
1
3
-38
31
108
27
12
19
22
40
-76
-237
-30
-20
34
-6
0
-4
12
23
51
18
-243
35
7
-3
13
-22
36
3
-55
20
-27
12
-1
-34
-13
-3
-34
8
27
30
15
58
-246
15
-16
-27
-67
5
7
8
22
19
-133
-10
24
9
29
-144
15
-74
-14
25
-2
-62
-39
-43
20
46
29
-14
-24
-121
9
11
-3
0
-6
-4
0
6
-20
-159
-1
-13
39
22
-7
-25
84
-96
-37
13
29
25
-134
-20
33
25
-23
-4
9
-60
-219
-2
-7
-115
-15
-1
-173
-2
-25
36
-24
-2
-214
-33
-2
-5
41
1
43
-64
-89
10
57
46
-11
20
77
3
22
-13
-4
3
23
-18
-20
48
-84
-13
35
-40
3
15
5
-5
-31
-32
-144
-66
0
-20
-69
27
48
-177
-165
-9
25
8
-25
58
-1
-15
38
79
-131
-3
-18
48
92
8
-14
-41
-14
-15
-8
-5
46
5
2
4
-165
-4
6
-65
-58
-118
13
-38
-3
-22
2
-13
4
36
1
0
-123
15
-76
59
9
-19
-1
-45
-10
15
4
-165
14
-6
0
9
11
43
37
28
7
6
32
-31
-1
-88
17
-40
24
-38
32
0
0
-203
-10
2
38
-43
-11
19
-63
-31
-123
18
94
-25
-11
64
-15
-21
-18
29
6
-13
-7
-62
6
32
-38
22
111
16
-18
-7
-28
41
27
-73
19
-10
71
-12
20
-9
17
25
65
11
9
-114
-35
12
22
-23
40
4
-5
19
-21
-4
6
-151
-29
14
-25
-49
12
106
29
-63
-257
23
-6
-6
-277
13
4
27
23
13
-119
-1
-40
-35
37
3
22
-13
-17
17
3
-69
-30
23
7
-202
28
23
-38
14
-18
9
2
-38
11
8
-5
-1
-23
-186
-2
-25
-37
18
-44
-12
24
39
33
-3
6
-38
-90
-40
23
47
-26
2
9
-15
-257
25
31
-94
-23
1
-93
15
20
49
22
2
-3
-45
-36
-23
0
2
3
-58
22
46
40
51
-14
-8
68
-1
6
-20
4
79
-8
1
-13
18
50
4
16
-52
17
-17
16
15
49
1
-75
-69
-3
-30
19
0
50
-204
-216
0
23
19
44
46
3
-63
19
-8
-90
4
3
52
-101
18
6
3
-68
-12
-5
-11
8
-18
38
17
-143
-2
-10
-89
5
-93
-50
-41
-48
29
49
-7
-7
79
0
-13
-219
-2
-61
85
28
-74
6
55
8
32
57
-160
16
3
-7
12
27
36
36
33
15
6
21
-29
7
-31
9
-40
14
-24
-170
17
-8
-197
-3
0
46
10
-12
27
-101
-48
0
45
87
-61
16
30
-46
-33
-19
47
8
-75
41
1
12
16
-64
4
81
14
4
-1
38
-3
-65
-66
13
-8
14
-6
15
11
-38
22
-16
7
-258
43
-24
-2
21
-37
33
-4
-43
42
-8
10
-1
-19
-86
-16
-30
-34
14
101
-21
-11
-109
25
-13
-1
-290
8
-3
-11
18
22
-140
-15
-3
-39
25
-54
17
-51
6
57
25
-72
-42
-4
9
112
22
-28
-37
0
-19
6
10
-38
5
-2
5
-3
-11
-188
-18
-34
56
21
2
-14
17
-128
51
18
22
-19
-134
-18
2
7
-44
-4
23
-44
-298
-2
5
-85
51
0
-65
-14
-6
52
-41
3
-2
-56
-30
49
27
23
10
-104
-14
-4
43
33
-8
10
35
-31
-22
22
49
-57
81
-25
21
40
17
0
21
-11
8
-25
11
-6
-25
-60
-53
-85
5
-35
-66
26
36
-254
-217
-4
10
13
-3
27
1
-6
-2
-7
-53
-12
72
63
16
50
-18
-36
-39
-6
0
-17
17
4
-13
13
-122
12
-3
-49
-31
-110
0
-42
-16
-57
12
-15
-8
51
-9
36
-196
16
-65
35
10
-76
12
12
-11
35
32
-139
21
-1
-27
26
-12
58
53
49
-5
0
18
-29
17
59
-9
-41
17
-39
-7
3
-8
-203
-22
-12
42
-50
-12
15
17
-62
-126
45
35
-27
22
-62
-45
-27
-22
-109
-24
-31
30
40
4
20
-115
26
42
10
-18
21
-27
7
29
-55
2
-16
38
-22
-46
12
-25
10
-24
10
21
-10
-86
5
23
-13
30
8
7
-5
5
2
33
-66
-45
5
7
-19
-16
40
-22
25
-137
29
-16
-18
-254
8
30
-35
19
45
-147
-84
-123
-14
29
-27
35
-19
-38
2
-3
-64
-13
20
5
-211
16
-7
-29
6
0
-2
47
-12
-11
-18
-1
-9
-37
-136
14
-21
-3
23
9
-12
11
49
-50
13
-11
-54
-65
-13
-51
7
-50
-11
30
7
-246
0
-47
-54
-13
4
-47
5
-7
15
-1
10
-23
-63
-142
-3
1
-18
-2
-73
5
-2
40
19
-18
-2
-2
-50
-28
39
-19
14
-6
-36
8
60
9
14
0
4
10
10
12
0
-78
-54
-51
-73
9
-30
18
57
20
-212
-214
-1
-23
-13
55
30
-19
20
-6
-7
-89
1
31
-19
19
-3
-15
-7
-33
1
-13
-21
12
-29
16
-24
-103
25
-14
-60
-3
-110
-34
-32
-30
40
6
5
-18
51
-23
14
-168
-5
-48
3
10
-67
56
41
-3
8
-19
-146
6
-3
-36
95
80
-41
26
17
12
35
17
-62
33
-73
-30
-29
17
-29
-35
-1
-12
-236
-49
6
34
7
21
23
-60
-50
-4
37
5
-23
10
-45
-101
-69
-15
35
17
-39
-5
47
-118
-1
-116
-9
-41
3
10
33
55
20
-77
-52
0
2
15
-12
-2
-5
70
-7
6
9
45
-45
37
-16
25
-18
31
-44
-179
32
-14
-12
0
-78
-94
-4
-20
-17
-53
82
-56
-28
-169
32
3
-25
4
10
26
-48
21
66
-198
57
12
-13
41
-33
36
21
-27
-12
21
-70
-37
5
10
60
21
0
-32
0
-17
-11
-22
3
6
-21
-3
-2
-211
-117
17
-27
82
13
5
-10
11
-38
54
-5
21
-33
-84
-10
-260
19
-50
-13
23
20
-158
-12
-35
-49
-25
3
-41
-5
-12
-4
-19
2
-29
-81
26
-22
-12
-121
-74
-47
50
-15
56
3
-16
5
-14
-14
-25
-9
22
-19
7
-9
15
24
-25
30
21
6
-3
-43
15
5
-33
-44
-45
-43
-28
-37
-65
55
35
-119
-191
8
-57
47
-35
19
-28
24
27
-23
-53
7
56
-24
60
-4
8
-86
-13
74
-22
7
17
18
-24
21
-103
-46
-12
-19
-16
-75
-22
-35
-6
-18
2
-7
9
10
-36
15
-108
-2
-22
0
22
-13
21
17
6
-1
-51
-179
4
-4
-6
69
-19
8
-16
32
17
-40
0
-86
32
-22
-80
-23
1
-27
-87
-14
23
-229
-33
-3
32
-5
4
21
-1
-55
-46
28
-17
15
20
-83
-129
-22
24
23
-90
-25
11
-12
-2
12
-61
32
-46
14
-9
26
-93
14
28
-53
8
-36
-54
-23
-23
-6
-28
12
3
4
8
-23
-59
20
27
1
38
-53
54
6
-27
12
2
-11
-11
1
77
-25
-47
55
-77
60
-191
25
-13
-73
-11
2
-2
-9
28
40
-156
-27
-110
-66
36
-48
22
-1
13
-14
-12
-57
-45
-1
4
-42
19
22
-18
14
-38
-37
29
35
-8
-48
-86
15
87
-55
17
-4
32
19
7
-31
8
6
-63
-16
3
-28
-53
-9
-219
-5
-113
-15
44
-12
-119
-6
-179
-56
0
5
-30
-31
-19
0
-24
-25
-43
-38
-23
11
-29
-15
12
-50
29
-33
56
18
-24
36
-37
-59
-14
27
11
2
-16
-5
22
47
55
42
-14
2
-16
24
0
-1
7
-57
-50
-54
-35
-30
13
-17
60
-102
-191
-32
-19
-107
-23
17
11
13
17
-8
-27
-35
-2
-106
39
7
22
48
-6
25
-24
11
22
-18
39
-30
-107
-18
-34
30
-11
-22
-21
-37
-10
19
34
-16
17
-33
-19
-33
-88
-20
-143
4
-2
-1
19
-6
-1
10
-4
-172
15
-6
-14
82
118
3
251
27
-17
42
-6
-182
-19
23
-85
-16
-7
-29
39
-5
14
-232
-55
-6
29
4
-27
47
-71
-41
-46
-15
49
62
13
8
-137
3
0
-6
25
-23
-23
35
-3
1
-17
9
-47
-21
-1
13
9
2
-74
-19
-7
-1
71
-40
29
-38
-49
-2
9
-6
-12
-13
-49
-10
39
-5
23
-6
-55
9
-21
-6
30
-6
7
0
-5
-85
-7
84
-24
53
-246
-21
-4
46
-10
-62
-112
44
16
-75
-109
-63
29
-43
46
-48
21
-16
8
18
-18
-56
-84
-12
23
-16
33
13
-39
3
-21
12
68
42
-4
-54
-32
11
64
-38
-12
-11
54
-9
24
-26
23
-63
-29
16
80
6
-41
-2
-9
0
-28
1
43
56
-199
-5
-191
-68
-31
1
-42
-4
-37
17
-32
18
-69
-58
-12
-8
-10
25
-50
-45
9
2
55
39
-5
-29
-39
33
3
7
22
-6
-5
3
20
9
10
0
9
11
17
-27
32
-3
-16
-43
-56
-59
-46
-32
-85
17
-23
-148
-143
-2
-28
69
14
18
17
39
-37
-19
13
-38
-5
2
-55
-10
15
-184
11
36
-20
35
10
13
-37
30
-97
9
-31
-13
-56
-70
-7
-32
-35
-30
23
-12
-10
-31
-4
18
-37
8
-66
14
5
7
1
24
12
64
6
-196
10
4
2
-11
-7
17
270
15
7
33
-6
-23
2
-15
-80
-55
-13
-43
-69
-56
-23
-220
-63
36
42
9
-73
47
-22
-29
-54
-16
100
114
1
-20
-14
-27
-11
-25
7
-24
-1
-34
-13
-3
-43
20
-47
-86
26
8
28
47
22
-47
-11
-17
-124
-4
50
5
-58
4
-20
-18
-12
-41
22
-2
21
-7
12
-25
42
15
-8
12
44
-46
26
-3
-46
-22
-5
72
-73
26
-249
-13
2
-46
17
0
31
53
30
-189
-167
-21
-40
-13
40
-47
-115
-15
-19
42
-17
-58
-86
-10
12
-9
26
14
-108
24
-38
-17
20
48
23
-5
13
3
-21
-55
11
-6
0
13
58
0
2
1
1
0
-1
1
0
0
0
1
2
-2
2
2
0
-2
-1
0
-3
2
-2
1
0
-2
2
-1
-3
0
-1
-3
3
2
0
-1
2
0
2
-2
-2
0
-1
0
3
-3
-2
-1
1
2
1
0
1
0
-3
-2
-1
1
2
1
2
-3
0
0
-2
1
3
2
-3
-2
1
0
-1
2
3
0
-2
0
-1
-1
-1
0
0
-3
2
-3
1
1
2
-2
-2
-2
-3
-3
-1
3
-3
2
0
3
-3
-3
3
-3
3
-3
-2
-1
3
3
0
0
2
1
1
0
0
-1
-2
1
-2
1
0
3
0
0
0
0
1
0
-3
3
2
2
0
-1
-3
-2
1
2
-3
2
1
-3
2
0
-3
0
-1
1
3
0
0
-1
0
-2
1
-2
1
-1
2
0
2
-2
1
3
2
-1
-2
-1
0
0
-3
2
2
0
-3
-2
3
-1
0
-2
-3
-2
0
1
1
-1
1
-3
3
0
-1
1
1
0
0
1
-3
0
0
-1
-1
-1
2
-2
0
-2
1
0
-2
-1
0
0
0
-1
1
2
-3
1
-2
-2
0
2
-2
0
-3
1
3
0
1
-2
-2
2
0
-1
-3
0
0
-1
-3
1
1
2
3
-2
-2
0
0
-1
-1
3
-1
-1
2
-2
-2
-1
0
-3
-2
2
-1
-2
0
0
0
-2
-2
-1
1
-2
3
1
0
1
0
-3
2
0
0
-2
2
3
1
-2
1
-3
1
0
-3
-2
0
-1
2
2
-1
-1
0
0
3
0
2
1
2
1
2
-3
-1
1
-3
-1
-3
-3
1
0
0
-1
0
-1
-3
3
-2
2
-1
2
2
2
3
3
-2
2
1
-1
-3
2
1
-3
-2
-2
0
-1
-1
2
1
1
0
0
0
0
1
-2
-2
2
3
-1
-3
-1
-1
0
1
2
0
-3
-3
0
-2
1
-2
2
2
0
-1
0
0
2
-1
3
-2
3
0
2
1
3
-1
1
3
-2
0
3
2
-1
2
0
-2
1
2
1
2
-2
-2
3
-3
0
1
-1
0
2
-1
2
0
2
-3
3
0
1
0
-2
-2
0
2
1
-3
1
2
-2
-2
0
0
-1
2
0
1
0
-3
2
2
1
2
-1
-3
-1
2
0
0
-1
-1
-3
-2
0
-3
3
3
0
1
1
-3
2
-1
1
0
2
-2
2
0
0
0
3
1
2
0
0
0
1
-3
0
-2
1
-1
0
-2
0
-2
0
-2
0
0
2
0
-2
-2
1
-1
-1
-1
0
0
2
0
1
0
2
1
3
-1
-2
2
1
0
2
0
-3
-2
0
-3
-1
3
0
0
2
2
0
0
2
-2
-1
-2
-3
1
1
0
0
2
-3
0
1
1
-2
-2
-1
0
-1
0
-1
-3
-2
0
3
-3
-3
0
-2
-2
1
1
-2
1
-2
3
-2
-1
-1
-3
3
-3
0
1
0
-3
2
3
1
0
0
3
1
-3
2
3
-3
-3
-3
1
0
2
0
-2
-2
0
-1
-3
-2
1
2
-1
0
-2
0
-1
0
2
0
-2
3
-3
0
-1
-3
0
-3
1
3
-2
-2
-1
0
2
0
0
-2
2
0
-1
-1
0
2
-2
-1
0
3
2
3
-3
0
-3
-1
0
-2
2
3
3
-3
3
2
-3
-1
1
-3
-1
2
3
0
0
-2
-3
0
1
-3
-1
-2
1
1
2
0
1
3
-2
-3
-1
-2
2
-3
-2
-3
0
0
-3
2
-3
-2
0
-1
0
-3
0
2
2
0
1
0
-1
-1
2
0
-3
-1
2
-3
1
-1
2
2
2
-1
-2
2
-1
1
-1
0
2
2
1
1
0
1
2
3
2
0
2
2
-1
0
0
-2
-2
1
-2
0
0
3
0
1
3
1
-2
1
2
3
-2
1
-1
-1
-1
-1
-3
0
-1
0
-2
-2
0
-2
0
-2
1
-2
-2
-1
1
-2
2
0
0
0
-1
-3
2
0
0
3
3
0
-3
3
-1
-2
2
-1
-3
-3
3
1
0
0
0
-1
1
0
-3
0
2
-1
0
-2
0
-2
2
1
1
0
0
1
0
-1
-2
0
2
0
0
0
0
-1
0
-3
3
-3
-3
2
-1
3
-2
-3
0
-1
0
0
1
2
3
0
1
2
-1
-1
-1
1
-2
0
-1
-1
2
0
1
2
-1
1
3
1
0
1
2
3
-1
-3
1
-3
0
-2
-1
0
0
1
1
-2
0
-2
-2
-3
2
-2
2
-2
-1
-2
-1
2
-2
2
1
0
0
0
1
0
3
0
0
0
0
-3
-2
0
-3
-3
3
0
0
1
2
2
0
0
0
0
-1
1
2
-1
-2
2
0
-2
-1
-1
-1
0
-1
-1
-2
1
2
0
1
1
-3
0
1
3
0
2
1
3
-2
2
0
0
-3
-1
-1
-1
0
0
3
0
-1
-3
1
0
1
0
0
-1
1
2
1
0
-1
-2
-2
0
2
1
1
-2
2
-1
-2
-2
-2
0
0
-1
2
-3
3
0
3
-1
0
0
-3
2
0
-1
1
2
0
-1
2
0
-1
-1
-2
-2
0
-1
2
0
-1
-2
0
-1
-2
1
0
0
-3
2
0
-1
3
1
2
-3
1
1
2
-1
3
0
2
0
0
0
1
-3
0
-2
1
0
3
-1
-2
0
1
-3
3
0
0
-1
-3
-3
-1
1
1
0
0
0
-2
0
1
-3
-1
3
1
0
-2
0
-2
2
2
1
-2
1
3
-1
1
2
-3
-1
-2
3
0
-1
0
0
-2
0
-1
-1
2
1
-1
1
-1
1
-1
1
1
-1
0
1
0
-3
-1
3
1
-2
2
0
2
2
1
2
1
-2
0
2
2
1
2
-1
-2
1
-2
0
-1
0
-2
2
0
-2
0
1
-2
-1
-2
1
2
3
0
0
1
-2
-2
1
0
-2
-2
-1
0
0
-1
-2
-2
3
-1
1
-1
2
0
2
0
2
0
0
-3
2
-2
0
3
0
3
-2
3
-1
1
1
1
2
-2
2
-2
1
-3
-2
-2
3
-2
0
-1
0
-2
-1
-1
-3
2
2
0
0
0
0
3
-3
1
3
2
0
-1
-1
3
1
-1
1
2
0
3
1
1
0
-1
-2
-1
1
-1
-2
1
1
-2
0
1
1
0
0
2
-2
0
0
3
0
-1
0
0
0
-1
2
0
-1
-2
0
-3
2
2
-1
0
1
0
1
-1
1
1
0
0
1
0
1
-2
-1
0
2
0
-3
-2
-2
3
1
0
0
3
-2
0
3
0
0
-2
1
0
1
-1
1
-3
-3
2
-1
1
0
-2
0
-3
0
0
0
-3
0
-1
-2
-1
0
2
3
-3
2
0
2
-1
-1
0
-2
3
0
2
-3
0
2
-2
1
-3
0
0
1
-2
3
-1
-3
0
0
-2
-2
0
-2
2
-3
-3
-2
3
-2
-2
0
0
3
-1
0
-3
0
-2
0
0
-2
0
0
-3
-1
1
3
0
2
1
-3
1
3
0
0
2
-1
2
2
-2
0
2
-1
0
0
1
-2
2
-2
2
0
-3
0
0
0
0
-3
0
2
-2
3
-3
3
1
0
3
0
-2
-2
0
0
3
-2
2
-2
-2
1
1
-2
0
3
1
-1
-3
-2
-2
1
2
0
-2
-1
-1
2
0
1
-2
-3
1
-2
2
0
3
-2
2
0
-2
0
-3
-1
-2
2
0
-2
-2
3
0
2
2
-1
3
-2
1
0
2
2
-1
-2
1
-3
0
-1
-3
0
2
-2
-1
1
0
2
1
2
2
-1
0
-1
0
0
-1
3
-1
-3
-2
-3
-2
-2
-2
-2
1
0
-2
2
3
-2
-1
0
-1
1
-1
1
0
-2
-2
0
3
0
0
0
0
1
3
0
1
0
1
2
-3
0
2
1
0
-1
2
-2
3
2
0
0
-3
0
-1
0
-2
2
-3
-1
1
-1
-2
1
3
0
1
0
0
1
3
3
-1
2
1
0
-1
1
3
-1
1
-3
0
0
2
1
2
-2
0
0
2
-1
2
3
-1
0
-2
0
2
0
-2
0
-2
1
1
0
-2
3
-1
-1
-1
-3
0
0
2
1
-2
2
-1
-1
-1
0
0
2
3
0
0
0
-1
1
3
0
0
-3
-3
3
2
0
0
-3
-3
-3
1
3
0
0
1
1
2
1
-3
0
0
2
2
-2
-1
0
-2
2
2
3
3
-2
0
0
0
0
-3
-2
-2
-1
2
-2
-1
2
1
0
0
2
-2
-2
0
-3
0
2
0
1
-3
3
-1
1
3
-2
0
1
-2
-1
-2
2
0
0
1
-2
0
0
1
1
3
0
-3
0
-1
-1
2
1
-2
0
-1
1
0
3
2
-2
-1
0
1
2
-3
0
-2
2
3
3
0
2
2
0
0
1
-2
-2
-2
-2
-2
1
-1
-1
0
1
-1
3
0
-2
-2
0
-3
1
1
0
-2
-2
-1
0
1
2
-1
-2
3
-2
3
-2
2
1
1
1
-1
2
1
-1
0
2
0
3
-2
3
2
0
1
0
-1
0
0
-2
-2
0
-3
2
2
1
1
2
-1
0
-1
-1
2
-1
-3
0
3
2
-3
1
1
1
-2
-2
-3
0
0
-2
-1
0
-2
0
-1
-3
-1
-1
-1
-3
0
-2
2
-3
-1
0
0
0
2
0
0
1
-3
-1
3
-1
-2
-2
0
0
-1
2
-1
-2
1
0
-2
0
-2
1
-1
-1
0
1
-2
-1
1
0
2
3
-2
1
-3
-1
0
-2
-3
0
0
2
0
2
1
2
-1
3
2
-2
2
-2
-2
-1
1
1
-1
2
-3
2
2
-3
0
2
-3
0
3
-2
-3
3
-2
3
-3
0
1
1
-1
0
-1
-2
0
1
-3
1
0
2
2
-1
0
2
2
1
2
2
-1
-2
0
-1
0
-2
-2
0
-1
0
-2
-1
1
0
0
1
0
1
0
1
-1
-1
0
-2
-1
-2
-2
3
2
0
1
-1
-1
-2
0
-1
2
0
-3
3
-2
1
-2
2
-2
-1
1
0
2
0
0
2
-3
-2
1
3
3
3
-1
-1
0
0
1
-3
1
1
-1
-1
0
0
0
-1
-2
3
-2
-2
-1
-2
2
-3
-1
-3
-1
-1
1
-2
1
1
0
1
-2
1
2
-1
0
0
1
-1
-2
0
-1
0
-1
-3
3
1
0
-1
0
-1
-3
-1
0
1
0
-2
-1
0
1
3
-1
3
-2
2
2
-1
1
0
1
1
-3
-1
1
0
1
0
0
0
-3
1
2
-14
1
-14
8
-19
42
19
-10
-209
-48
22
-22
-339
27
9
-23
19
-34
-42
-18
-26
-67
-14
-51
-37
-19
-40
20
48
-7
-4
24
22
-20
71
13
3
-123
47
-47
-20
14
-2
-1
15
-23
-4
-14
22
-31
2
-42
6
47
5
71
33
13
15
4
29
-36
-23
-23
-14
-40
13
11
17
-54
-68
-6
-21
-20
-2
10
-2
-19
0
15
-25
0
-35
-23
-27
-4
-20
-105
10
-29
-16
-10
7
-12
-8
-83
-17
5
19
4
27
-8
-140
8
15
-47
37
-25
-32
5
14
8
4
20
-36
-15
-155
-27
-25
12
-30
3
-285
-2
-1
19
13
0
-8
-14
12
29
3
26
17
0
-11
-39
190
10
-20
0
-104
-15
-119
39
-2
-92
-20
-19
2
3
34
-72
-19
-25
25
8
28
-28
-4
-17
-10
-3
32
1
1
28
-47
-49
25
-28
28
-13
17
-32
1
-117
7
-5
-5
-17
-9
-12
-51
2
-31
-3
14
-65
18
18
20
-80
-90
59
25
6
28
23
26
-21
4
-34
25
1
30
17
-3
21
-32
-161
-12
-15
-1
-14
8
5
-17
-1
-27
-145
-32
-4
4
0
-42
-36
-30
-28
11
-1
-113
-19
9
0
3
-17
-14
26
-4
-105
40
31
4
-28
-25
-13
-20
-7
-18
-63
-127
-109
58
15
-11
-28
-27
18
-23
37
-14
22
-38
-23
-8
-29
24
9
16
-19
15
-40
-32
-38
-33
14
0
-60
-27
-7
-53
24
10
7
48
3
24
9
62
-12
-14
-113
46
-31
-30
4
-2
-18
0
-35
15
0
42
-35
-2
-7
-8
56
-7
64
-23
18
21
-22
28
-44
-34
-10
5
-94
-8
-1
0
-31
-66
0
-1
-3
10
0
-13
-14
17
-14
1
-20
-6
-5
-22
8
-16
-177
18
-17
-30
-17
0
-8
-9
-105
-10
5
3
9
29
-2
-163
4
-22
-36
25
-16
-65
-3
2
24
-8
-8
-46
-3
-111
-6
6
7
-32
16
-287
7
9
-106
0
-9
-19
-7
6
33
-19
-7
44
3
2
-47
191
16
4
-20
-91
-32
-127
67
-8
-89
-45
-22
1
-43
27
-85
-10
-12
15
22
20
-28
8
-4
-31
1
-8
14
-7
36
-37
-49
0
-30
12
-16
25
-1
-9
-68
25
-3
-35
-9
-22
9
-6
7
-12
28
16
-64
18
-17
23
-73
-85
55
-7
-13
38
27
32
8
8
-33
7
-5
3
19
-4
9
-29
-158
50
17
-16
-8
16
7
-4
28
-44
-99
34
-35
-6
18
-33
-19
-5
11
5
-1
-121
-30
-19
14
-24
-7
-19
30
-11
-92
30
16
0
-56
-6
-19
-40
8
-23
-51
-129
10
49
3
-34
-2
-2
8
-2
38
12
2
-58
-26
0
-22
-2
17
4
-28
14
-29
-35
-23
-31
-7
2
-41
-48
-1
-33
40
26
7
30
27
15
2
76
40
18
-117
31
-16
-16
18
-12
14
2
-12
-10
0
42
-27
16
-34
-3
40
0
66
30
16
30
6
13
-45
-44
-17
0
-66
9
13
-7
-35
-65
7
-3
-11
12
-2
-12
-15
4
5
1
-2
-33
0
-28
8
-15
-159
10
-28
-18
-7
5
30
-10
-108
-7
6
2
7
15
-82
-160
-15
17
-55
25
8
1
1
14
34
7
-8
-47
1
-154
-26
-16
31
-42
-27
-259
4
12
-45
-1
-1
6
-4
17
28
-10
12
26
6
16
-29
182
13
-13
-37
-90
-10
-153
50
6
-78
-13
-3
4
-12
32
-57
-3
-4
22
27
19
-34
15
15
-15
16
25
-7
22
22
-30
-63
12
-29
9
-9
26
8
-10
-107
26
2
-20
-2
-19
-16
-7
-1
-23
4
23
-28
9
12
23
-77
-87
51
10
-20
45
25
16
3
0
-32
33
0
18
13
5
25
-17
-153
45
-11
-9
-1
5
11
11
17
-34
-74
-11
-2
-5
33
-4
-16
-13
-16
5
-4
-122
-36
2
2
15
-10
-20
32
-12
-38
39
29
9
-50
-14
-21
-14
4
-24
-11
-126
-45
56
28
-4
-4
-13
-9
-16
38
3
28
-13
-19
-21
-30
54
15
23
-32
22
-38
-34
-40
-35
-3
-13
-36
6
0
-19
40
10
12
11
17
12
11
70
-8
6
-112
40
-17
-11
25
12
-14
25
-28
0
12
6
-20
-5
-6
14
56
7
58
25
20
42
0
30
-45
-37
-14
-52
-92
-2
18
-13
-29
-61
3
-7
-6
7
-2
0
-10
13
-4
23
0
5
-14
-10
2
-17
-89
8
-8
-34
0
24
-22
-12
-102
-14
14
2
3
30
-16
-168
18
23
-28
29
-17
-10
-52
12
18
-5
-8
-24
-2
-141
0
-14
34
-32
28
-287
-1
-6
-69
11
22
0
-3
16
15
-17
15
55
-5
15
-27
185
4
-18
-11
-85
-16
-149
63
-2
-79
-14
-4
-4
-3
29
-58
-3
-8
30
23
18
-31
19
9
-38
24
4
-3
11
35
-23
-67
25
-25
10
-7
35
1
-1
-84
23
20
-27
-7
-27
-4
7
21
-9
13
17
-35
0
-17
-3
-83
-87
32
11
4
28
33
20
1
-7
-13
45
0
2
27
-17
23
-27
-156
39
4
6
-12
6
8
12
12
-38
-87
-1
-25
-7
33
0
-14
22
12
6
0
-123
-34
-6
-18
0
0
-8
36
-1
-38
29
20
29
-44
-4
-20
-14
0
-14
-6
-125
23
62
1
-29
-4
-9
25
-11
39
7
7
-38
-21
-10
-31
45
-5
2
-29
11
-33
-35
-16
-34
0
-37
-45
-1
-1
-37
39
17
1
7
25
16
-11
71
5
13
-113
33
24
-10
21
7
-6
4
-23
-7
-1
37
-8
36
-29
-3
39
0
53
39
27
40
-9
12
-48
-43
-36
-48
-70
24
27
-11
-34
-73
5
3
-15
2
-2
-7
-11
7
31
0
20
-33
-9
-31
6
-31
-17
32
-22
-15
2
28
31
-9
-101
-4
16
15
17
12
-45
-170
12
36
-9
-19
4
6
-30
17
33
0
-7
-33
1
-164
-26
-13
39
-43
-17
-265
1
-6
-51
5
-25
-8
-8
13
18
-15
23
22
6
1
-24
183
47
-16
2
-78
-4
-117
52
8
-84
-18
-1
0
-1
29
-62
6
-5
19
26
15
-32
-2
17
-15
14
9
-10
21
36
-37
-48
-28
-33
15
-9
44
6
-13
-109
34
-2
-8
6
-47
-19
15
9
-34
4
16
-28
6
-2
27
-79
-84
17
17
5
36
19
19
13
-2
-25
34
-14
14
25
-5
31
-27
-139
15
-18
-14
-10
-1
16
0
23
-36
-112
-30
-2
-8
40
5
-18
16
-6
8
-6
-124
-41
5
2
-4
-7
-5
32
-16
-2
33
-10
15
-58
-7
-19
-12
2
-14
-20
-126
-28
22
38
-4
-2
2
4
7
35
-3
17
25
-17
-31
-27
50
26
7
-29
15
-38
-27
-26
-36
-3
9
-50
9
-9
-8
35
25
4
1
29
18
18
66
-25
6
-117
-5
12
-18
17
10
5
26
-20
14
-12
24
-14
10
-6
20
44
1
43
61
25
34
0
43
-46
-44
-34
-41
-86
-25
36
-11
-34
-70
0
-7
-5
-5
2
-2
15
1
-7
12
0
1
-8
-15
-3
-28
23
12
-11
-23
5
23
-33
-5
-96
-18
14
1
7
27
-10
-173
4
14
-9
25
-22
-8
-55
10
25
0
-3
-22
-4
-75
-2
-6
21
-11
10
-252
-10
2
-39
23
8
-21
-3
15
-16
-17
19
52
-4
5
-25
186
61
-7
-12
-54
-22
-103
58
-14
-80
-14
5
-6
10
32
-61
9
-7
13
14
47
-28
30
1
-25
31
8
-18
21
23
-32
-38
17
-33
0
-13
36
-14
0
-79
41
0
-19
-4
-65
-30
7
27
-27
6
-7
-33
7
-4
11
-79
-86
-9
0
20
23
18
2
7
10
-13
52
2
3
19
-10
14
-33
-147
16
17
17
-13
8
15
-11
32
-25
-138
-4
-26
-11
45
8
-6
15
25
0
-11
-124
-43
-3
-5
4
-13
-12
30
-7
9
10
17
24
-41
-12
-16
-11
-7
-4
-31
-125
22
43
3
-14
-7
-17
42
0
33
-5
11
2
-9
-8
-34
62
23
19
-23
22
-50
-25
-28
-35
-11
19
-74
13
-15
-46
31
13
6
13
23
16
5
63
-11
-12
-111
18
23
-28
10
-5
-2
0
-25
4
19
44
-11
28
-18
3
34
1
42
47
32
16
-17
15
-48
-43
-62
0
-68
19
1
-7
-34
-74
13
4
-5
-28
-1
-6
7
7
21
-4
-12
-25
-3
-29
-4
-36
33
25
-25
-17
0
16
2
-16
-104
-9
12
6
14
25
-11
-183
2
-18
10
11
6
-36
-48
22
35
2
-15
-22
7
-117
-24
-3
36
-47
13
-248
-36
-3
-20
-1
-27
5
-22
4
15
-21
3
23
9
12
-17
188
37
2
9
-80
-19
-90
56
-6
-83
-21
-3
7
-5
27
-89
-10
-17
10
25
22
-32
-2
16
-29
37
8
-8
3
29
-27
-27
-38
-34
-2
-16
43
-6
-16
-106
41
-7
-25
-3
-61
29
25
-5
-25
8
0
-22
11
10
11
-77
-81
-24
15
-26
43
0
16
13
6
-47
24
-22
-16
8
10
24
-18
-153
0
-3
-38
3
12
19
-1
38
-39
-143
-17
-6
-11
41
1
-3
9
0
-6
0
-124
-37
10
8
-12
-6
-9
27
-5
21
18
-5
3
-54
-1
-7
-13
1
-6
-53
-121
13
11
22
-26
-14
-7
7
11
8
-47
13
14
-29
-15
-43
45
23
8
-27
-4
-38
-35
-26
-28
-15
11
-67
-4
-6
-8
20
30
-5
18
18
4
5
61
-15
16
-116
-47
22
-29
15
24
-1
2
-27
-10
-4
55
-3
6
-59
10
46
6
35
55
23
42
-19
19
-59
-32
-45
15
-87
-11
46
-1
-33
-52
-18
-33
-12
-51
-9
21
-2
-19
4
-5
-11
17
-30
-40
-7
-36
37
36
-23
-25
0
0
-22
-18
-91
-32
21
-8
2
2
-20
-155
10
-1
-10
18
-24
-7
-135
26
0
4
0
-43
-10
-63
-2
-33
32
-38
-14
-238
0
7
35
12
43
-8
-25
11
22
-8
11
46
1
-7
-30
182
47
-11
-10
-96
-6
-117
33
-92
-93
-27
13
0
-18
31
-78
-19
-4
11
15
23
-40
3
12
-26
14
-7
4
13
16
-21
2
50
-33
-89
-19
31
13
-10
-60
38
-18
-30
-12
-106
-15
-19
19
-28
0
3
-40
-1
-4
0
-83
-87
2
-28
19
29
9
13
3
24
-34
4
10
12
14
-14
-12
-15
-139
16
13
-1
-26
11
8
-4
17
-27
-140
11
-15
-38
19
7
-25
10
-2
-5
11
-120
-28
-20
-68
-6
-7
-19
42
-15
23
-19
11
11
-49
-17
-26
-19
-20
1
-11
-126
10
29
-1
-31
10
-20
17
-9
41
13
-2
-128
-39
3
-36
-142
15
-6
-26
16
-29
-30
-18
-28
-44
-2
-31
10
-10
-31
31
17
15
18
11
25
4
74
-3
-7
-126
50
13
-27
19
-1
-18
9
-34
2
13
26
-32
13
-32
-2
52
-14
61
-3
23
10
-4
6
-45
-28
-20
-8
-79
7
15
3
-35
-71
-2
-13
-18
17
3
8
-18
12
-11
2
0
-23
-29
-6
14
-18
-63
10
-8
-30
6
14
9
-15
-113
2
14
29
7
9
-28
-151
12
19
-46
38
-8
-18
5
25
23
-3
-5
-29
-12
-87
-15
-13
38
-10
8
-276
7
12
1
20
-1
-11
-7
14
32
-13
12
33
-10
29
-39
185
7
-5
6
-78
-23
-183
43
3
-98
-27
-23
10
-39
24
-63
-20
5
27
16
9
-36
11
24
-13
6
33
15
11
33
-22
-19
21
-19
18
-7
18
11
2
-58
24
34
-36
-11
-16
-11
-14
22
-9
22
18
-47
2
0
12
-68
-82
71
15
-32
28
23
22
-8
12
-49
27
0
21
15
0
6
-24
-159
32
-1
-2
3
13
7
-9
11
-33
-69
24
-3
-8
-6
-36
-22
25
-7
-5
-2
-113
-31
8
7
2
-10
-16
34
-4
-56
36
21
22
-47
-33
-21
-19
7
-22
-10
-121
14
53
9
-11
-49
4
-7
-9
32
13
12
13
-29
-19
-14
69
26
-6
-36
52
-28
-30
-15
-33
-36
-1
-41
33
2
-37
35
4
8
2
3
17
30
65
-25
35
-125
47
-42
-33
24
5
6
14
-40
-5
14
19
-43
5
-16
-7
41
12
62
29
15
17
5
13
-52
-40
-8
-23
-63
7
14
-12
-34
-77
6
-11
-3
22
36
-3
-16
-2
23
24
35
-6
-26
-34
0
-12
-124
9
-20
-26
5
13
11
-11
-106
-3
-5
7
-5
16
-80
-160
27
1
-48
20
-7
3
0
13
17
11
-11
-20
-24
-155
-25
6
-2
-44
-31
-261
6
9
-55
21
5
-20
-5
14
23
-13
-1
37
-2
-6
-39
174
24
-28
-3
-65
-14
-141
41
8
-81
-25
-7
3
9
23
-60
-8
6
23
3
18
-36
13
-51
-17
5
9
-15
9
31
-32
-99
19
-16
16
-6
17
14
-4
-112
13
0
-20
-13
-17
-11
4
25
-32
4
18
-35
1
2
14
-78
-89
65
7
-25
36
19
14
5
11
-20
16
-6
3
27
5
14
-14
-155
42
-11
-3
0
5
6
11
10
-37
-69
-17
-32
-4
34
-20
-21
29
71
16
-2
-126
-31
-17
-5
12
-3
-21
35
-4
-53
39
10
22
-42
-18
-15
-26
7
-24
0
-123
13
50
25
-23
-1
-20
4
0
44
10
17
-59
-27
-6
-21
-23
20
12
-35
6
-30
-39
-9
-35
-5
-2
-28
21
-21
-31
35
14
7
12
16
16
0
64
-4
-2
-115
55
19
-23
29
11
-10
29
-5
4
12
7
-22
3
-27
14
43
-13
55
38
24
28
-4
28
-44
-39
-12
-50
-84
4
16
-14
-33
-62
-1
1
-15
20
-2
-2
-8
16
9
-7
25
-22
0
-18
12
-10
-127
7
-15
-31
1
11
-19
-7
-107
-14
4
30
2
40
-22
-177
8
6
-32
28
-11
19
-5
12
26
-11
-8
-67
4
-146
-25
7
46
-6
12
-273
-2
0
-35
3
-2
-16
-3
10
14
-7
23
29
2
9
-30
178
19
-15
9
-61
-12
-132
48
9
-82
-23
0
15
0
32
-52
13
12
27
15
22
-33
3
13
-11
19
16
-21
27
10
-37
-93
5
-24
20
-6
17
-14
-11
-91
21
1
-25
-14
-20
-24
1
-6
-23
8
18
-23
7
2
14
-72
-84
52
16
12
28
10
21
3
2
-10
31
-1
33
25
-16
18
-17
-155
20
-7
13
1
6
9
-5
14
-29
-80
-19
-12
1
48
-10
-21
21
7
24
-7
-138
-30
1
-2
-3
-12
-13
36
-23
-178
37
16
29
-47
-14
-22
-12
4
-28
-47
-124
-29
51
-12
21
2
-8
-19
15
29
11
11
18
-18
-13
-17
43
20
16
-37
19
-33
-43
-21
-36
-8
-7
-44
28
-5
-25
38
2
3
7
19
9
15
57
-4
12
-108
46
-26
-14
18
10
-9
14
-31
-2
-15
38
-28
-7
1
0
39
5
59
43
26
23
-2
44
-46
-37
-5
-5
-77
15
25
-18
-36
-56
1
6
4
16
0
-9
-4
5
12
-4
1
12
-7
-40
-1
-19
-108
16
-34
-31
2
13
-9
-5
-104
-17
3
7
1
40
2
-191
-22
-3
5
-17
-16
-39
-45
8
18
2
-29
-23
-10
-143
29
-4
-3
-51
2
-269
2
7
-75
14
-35
-20
-10
0
16
-14
16
53
0
-14
-28
185
5
-5
-9
-76
-11
-149
45
9
-83
-33
-7
12
5
28
-67
16
-9
4
19
40
-35
22
-46
-47
24
11
-5
5
27
-30
-106
-27
-27
10
-3
29
-16
-10
-108
28
8
-22
-15
-28
-2
-26
11
-22
3
11
-44
0
-5
17
-73
-82
26
-11
3
35
13
18
13
10
-15
18
-15
10
21
1
14
-23
-152
18
53
-26
0
7
9
-4
19
-37
-87
9
-34
-8
54
0
-19
5
56
29
-45
-146
-33
-29
14
-2
0
-19
33
-6
-22
28
-3
-5
-49
-12
-19
-21
0
-15
-63
-128
33
46
9
-17
0
-11
5
5
41
13
5
-40
-13
-7
-21
45
-26
18
-39
16
-24
-38
-20
-35
5
0
-35
12
-6
-24
38
9
2
0
16
14
0
68
-10
0
-105
30
15
-16
19
6
18
26
0
6
15
36
-26
-1
4
14
32
-1
48
49
27
29
12
13
-48
-40
-28
-6
-89
0
6
-19
-31
-52
9
9
-20
15
-13
-3
-2
17
4
1
4
-1
9
-13
9
-28
-16
18
-7
-21
-2
14
3
-8
-101
-18
10
7
2
6
-31
-183
7
-16
-27
37
43
7
-19
24
40
-15
-14
-26
2
-146
-3
0
37
-21
18
-279
0
3
-36
44
12
3
-1
5
25
-9
10
20
12
-3
-20
184
33
-6
-4
-63
-13
-149
29
2
-81
-19
22
16
-44
27
-40
5
-4
25
23
19
-35
11
19
-10
32
28
6
32
36
-29
-68
14
-32
14
-17
33
-8
-4
-95
32
15
-31
-6
-46
8
5
9
-3
6
12
-31
15
24
13
-77
-82
6
8
-15
22
-3
12
-2
-1
-28
30
0
30
24
4
22
-7
-147
12
14
-6
9
1
22
4
18
-28
-122
-2
-12
-12
51
10
-12
2
-1
-8
7
-140
-33
5
-7
0
0
-13
34
-6
-28
31
19
35
-47
-12
-14
-16
3
-13
-31
-123
-6
40
13
-25
2
4
-16
2
18
-1
8
6
-17
-1
-24
53
16
7
-38
12
-35
-36
-20
-33
0
34
-27
4
5
5
32
8
0
2
30
30
26
63
29
18
-110
22
17
-5
15
15
-2
31
-19
-4
1
39
-7
28
-25
-3
34
7
48
55
24
50
0
40
-53
-38
-21
7
-73
24
32
-23
-38
-29
4
0
-19
3
0
-3
-4
7
-18
22
-8
10
-4
-25
17
-30
26
36
-14
-27
4
29
2
-5
-101
-13
13
17
34
17
-33
-183
9
30
-8
-11
2
0
-63
30
25
5
-15
-17
-1
-129
45
-5
23
9
-7
-269
0
1
-40
-1
27
-9
2
11
4
-25
24
56
4
-6
-21
178
52
-7
-8
-50
-8
-126
26
9
-82
-7
13
9
21
30
-68
7
0
23
14
32
-30
-1
16
-19
39
30
0
14
20
-25
-61
28
-33
-5
-9
44
-3
-6
-101
39
-7
-27
-22
-49
-15
-13
15
-16
11
-1
-30
7
-6
3
-76
-82
-58
-46
-9
42
22
6
17
21
-10
33
-12
3
18
5
11
-18
-146
14
56
-36
-3
11
16
-10
17
-35
-171
6
-14
-14
48
24
-9
9
3
16
-1
-141
-43
-18
-10
5
19
-9
35
-9
8
9
12
29
-31
-17
-13
-6
2
-1
6
-123
23
47
21
-18
-5
-19
0
-4
28
-8
4
11
-11
-2
-23
53
29
2
-35
20
-33
-37
-31
-33
5
-34
-48
3
-7
-37
24
23
4
0
24
7
1
71
-25
-2
-114
-10
22
4
2
3
11
39
-17
9
16
24
-12
-17
-16
13
44
2
41
56
26
36
5
22
-51
-38
-47
-67
-77
0
12
-19
-33
-58
9
5
-18
-12
0
2
-5
8
27
2
28
-5
22
-9
-15
-14
44
19
-8
-14
0
23
13
0
-107
-5
17
26
-4
10
-11
-181
12
32
-25
21
60
28
-10
6
30
-7
-9
-21
2
-143
-28
-12
34
-1
6
-260
11
69
-30
33
-13
-10
-5
13
13
-13
17
12
6
-12
-16
179
56
7
13
-52
-18
-104
24
4
-84
-14
9
5
-5
25
-60
3
-8
17
-2
23
-30
-21
12
-19
31
-7
-19
21
5
-28
-65
19
-32
12
-10
39
-3
-12
-78
40
-9
-23
-7
-57
-56
20
7
-17
14
9
-36
3
-5
15
-73
-84
-45
29
-12
22
39
30
0
-17
-4
42
4
13
20
-20
14
-7
-133
17
-8
-3
-10
18
50
0
29
-24
-86
-12
-14
-9
47
14
-14
3
7
-11
0
-130
-43
7
0
-1
18
-12
25
-5
30
19
14
38
-37
-2
-10
-8
2
-10
-41
-120
2
13
14
-13
-1
-6
3
-14
-6
-8
-9
23
-16
-15
-32
52
27
-7
-29
9
-38
-30
-23
-33
0
-14
-45
17
-14
30
21
14
5
21
24
0
10
58
13
15
-113
-48
20
-7
6
7
-3
9
-20
-1
10
23
-9
9
-29
9
29
-2
39
52
27
28
-7
33
-47
-37
-50
-19
-60
28
11
-5
-35
-57
-2
-5
-9
-20
1
-13
-5
4
-4
9
12
2
-11
-28
-13
-51
46
-6
-19
-22
3
10
-16
-10
-95
-13
10
5
19
17
-4
-156
7
-2
22
-1
-14
0
-98
26
23
9
0
-21
-7
-74
-14
2
29
-7
13
-242
17
16
10
-9
-12
-13
-6
18
3
-20
10
59
-8
-7
-24
189
59
4
-16
-67
-18
-94
71
-5
-88
-15
-19
-1
13
22
-74
2
-3
37
12
27
-34
16
13
-27
18
23
-7
5
27
-33
-24
-35
-28
-47
-6
44
2
-12
-111
38
-17
-7
-17
-72
-39
-10
-6
-32
3
-28
-37
-3
-9
5
-67
-84
-8
23
6
40
8
-6
18
7
-23
15
-13
18
12
6
-3
-17
-148
7
-2
-10
-28
14
7
-5
29
-40
-134
-15
-7
-12
47
16
-24
19
6
14
2
-114
-35
2
14
-6
4
-7
17
-12
24
-58
-7
13
-38
-10
-16
-12
-5
-6
-19
-126
-10
-6
9
5
-6
-3
30
-28
48
9
20
-39
-44
-6
-27
-94
22
31
-32
24
-34
-28
-16
-33
-49
-12
-31
10
-9
-29
21
-9
30
3
-32
28
12
62
-41
10
-119
46
-24
-22
21
6
1
17
-19
13
11
12
-35
-8
8
3
49
-22
66
34
25
23
-16
26
-40
-37
-20
-16
-65
2
6
-7
-42
-74
-13
-4
-26
12
-1
0
-16
55
4
6
20
0
-13
-32
17
-24
-145
16
-9
-36
9
-1
-8
-4
-106
-7
3
-2
-25
23
0
-160
3
9
-38
31
-19
-16
1
33
7
1
-1
-26
15
-177
-15
25
1
-18
23
-276
6
11
-4
24
1
-24
-4
13
20
2
23
35
-3
-3
-45
192
18
-17
-6
-59
-22
-172
51
6
-87
-4
-4
12
-30
23
-69
-7
10
18
-6
11
-29
6
-47
-18
9
26
-11
1
33
-24
-22
13
-14
11
-6
12
4
-10
-95
11
6
-30
-9
-12
-16
13
-3
-17
71
25
-47
15
2
15
-76
-87
61
15
5
31
19
26
0
31
-15
21
-3
24
30
7
15
-8
-162
20
-1
-4
3
10
10
-10
15
-34
-89
16
-28
0
32
-96
-21
32
74
9
3
-120
-17
-24
3
-18
-1
-15
36
6
-96
41
1
14
-36
-21
-19
-27
6
-16
-44
-126
22
50
1
-30
-44
-4
-14
10
38
21
14
-27
-27
-8
-28
-8
30
-5
-41
21
-29
-42
-18
-31
-29
-4
-33
11
-25
-32
22
9
1
2
24
18
17
47
35
24
-116
48
-60
-25
30
6
1
19
-6
-7
4
24
-25
20
-27
3
14
-8
61
57
21
17
24
33
-42
-40
-11
0
-73
14
-2
-18
-33
-49
14
4
-5
20
0
-1
-9
3
14
10
-5
-11
-23
-42
11
-15
-130
15
-18
-21
-1
-5
-15
0
-109
-6
-18
9
9
17
-27
-160
50
4
-24
33
-8
-11
-3
26
28
8
-27
-14
-14
-116
7
-33
15
-34
-29
-280
0
6
-29
31
-1
6
0
3
15
-2
20
32
17
9
-39
177
13
-18
-39
-59
-7
-165
54
9
-86
-19
-4
18
36
25
-58
14
4
24
9
21
-29
-11
2
-20
14
24
-33
38
26
-23
-116
-1
-22
17
-6
12
-5
4
-95
18
4
-26
-4
-7
-9
-15
2
0
-23
15
-41
14
10
20
-70
-85
64
12
-2
43
-14
18
2
6
-12
27
-1
14
17
15
18
-10
-145
16
13
-2
11
10
8
-4
15
-28
-63
-19
0
-5
50
-12
-19
-33
21
29
0
-128
-12
-11
0
13
-5
-19
31
14
-37
36
14
10
-38
-22
-27
-22
5
-20
-41
-130
-13
51
-4
-14
5
-45
-1
-18
34
1
13
-75
-23
-16
-7
18
11
20
-45
20
-35
-41
-34
-37
0
2
-26
24
-4
-28
29
6
7
-13
-18
14
15
56
-3
6
-114
55
-3
-18
29
13
0
34
-19
24
15
12
-31
-21
0
2
67
-10
61
22
19
17
3
38
-47
-36
-4
-9
-80
12
17
-24
-35
-43
11
4
-5
28
10
-9
-10
36
-13
7
-2
15
-7
16
3
-15
-110
12
26
-47
-4
0
8
-4
-109
-34
4
-6
1
23
-5
-185
18
-27
-26
11
-3
4
-7
0
18
-38
2
-54
24
-144
41
35
46
-25
0
-279
-4
0
-17
-2
17
-10
-6
5
24
-10
22
43
5
5
-36
184
17
-10
-53
-62
-9
-168
33
8
-86
-24
-4
17
-64
21
-50
8
-5
7
0
-10
-36
3
28
-16
25
10
3
-4
17
-21
-109
6
-21
22
-5
19
21
-9
-107
10
11
-30
-14
-19
-7
21
1
-13
52
16
-37
24
-11
7
-71
-85
52
-32
-24
25
25
7
0
-2
7
0
0
-4
22
8
8
-12
-147
16
50
-12
-1
7
11
-6
12
-32
-49
14
-38
-7
56
-11
-16
-11
4
33
8
-145
-18
-27
-4
-18
3
-15
31
-15
-239
29
24
23
-48
-9
-15
-51
6
-20
-31
-133
47
48
1
-31
10
-12
15
23
40
22
10
-10
-11
-3
-16
48
25
-2
-51
21
-23
-41
-10
-35
-19
-5
-29
23
-29
-22
33
15
7
9
34
1
15
53
24
26
-106
43
-2
-13
21
4
7
12
-36
-10
-17
27
-6
12
-21
-4
34
0
51
47
21
31
-8
10
-48
-48
-5
-47
-75
21
5
-35
-32
-60
4
9
-12
29
-1
-10
-18
7
33
6
-5
-2
16
-26
7
-11
-43
25
-14
-7
5
15
53
0
-104
-13
7
22
15
21
-8
-182
6
31
-36
-94
34
23
-30
26
26
-8
-32
-4
4
-137
-12
-11
30
-30
-9
-275
0
-4
-23
18
0
-20
2
5
19
-16
18
31
21
14
-23
171
18
-24
-18
-55
-5
-157
31
5
-71
-46
12
29
14
23
-42
24
2
35
14
19
-33
-10
12
-44
28
34
-12
26
14
-26
-109
9
-29
16
-9
30
3
-11
-110
25
5
-10
-9
-24
-15
-10
19
-15
-4
9
-20
-8
13
16
-76
-80
38
9
-21
47
25
4
29
-9
-9
48
-22
34
29
5
16
6
-137
17
9
-7
5
6
23
-7
11
-33
-86
-23
14
-8
54
17
-16
16
2
27
10
-146
-19
-6
-12
6
7
2
38
-11
1
34
-25
31
-51
-13
-18
-5
8
-12
12
-119
22
49
22
3
5
-10
-28
13
36
3
17
-11
-3
5
-8
41
2
23
-50
27
-35
-38
-27
-34
-3
0
-30
29
-2
10
26
20
11
7
17
11
19
49
-7
17
-107
28
19
1
33
17
4
45
-25
17
-21
-72
-22
17
-4
62
67
-3
48
55
24
39
-17
48
-52
-48
-21
-73
-82
-10
30
-36
-35
-47
-7
0
-10
23
-3
3
0
18
-15
8
17
3
-7
16
0
-40
6
8
33
-37
5
20
-34
-6
-104
-11
14
20
-5
8
-2
-191
7
27
-5
46
-7
15
-16
32
27
-39
-20
-14
7
-110
-4
2
15
22
24
-280
-5
3
-10
12
24
-20
8
4
3
-9
31
35
-1
1
-22
173
29
-22
6
-41
-26
-147
38
10
-80
-11
14
27
11
22
-44
17
2
22
15
22
-32
33
-24
-11
34
15
-6
22
22
-35
-71
6
-25
15
3
33
-7
-18
-104
30
-7
-23
8
-45
-30
5
14
-22
4
7
-28
8
-40
19
-79
-79
18
47
20
17
36
0
3
-44
8
59
-12
23
34
7
19
-28
-139
14
-3
14
8
5
22
-7
12
-22
-104
-6
-31
-10
53
11
-3
14
47
10
-39
-154
-28
-18
10
-3
3
-3
28
-1
-21
24
20
31
-40
-8
-21
-3
-1
-15
-30
-121
41
45
0
-4
-4
-21
37
7
28
9
3
8
-5
-1
-22
44
26
25
-42
15
-36
-37
-11
-35
-2
8
-36
7
-3
-12
17
6
4
1
17
14
5
56
14
9
-107
37
9
-12
21
9
14
10
-17
-8
14
30
-17
9
-13
12
23
-1
30
42
34
15
-26
26
-56
-41
-36
-33
-83
21
-7
-26
-33
-78
0
3
0
11
-6
-14
-6
6
10
0
5
-2
3
-38
-6
-25
27
73
-22
-11
-2
18
18
-5
-107
-16
9
4
4
23
-27
-204
-1
-14
45
1
-8
16
-39
25
31
-2
-17
-21
-3
-102
-8
0
21
-104
-8
-273
0
0
-26
25
-83
-14
0
4
3
-10
25
25
17
11
-16
183
32
-14
-5
-49
-6
-151
23
16
-85
-13
-1
16
-3
21
-68
15
-14
12
13
27
-38
-35
0
-27
29
21
-5
0
8
-22
-76
25
-32
-3
-6
36
-7
-10
-101
34
-10
-1
2
-58
29
9
1
-9
1
-4
-30
10
14
-13
-69
-81
-5
1
-4
34
-15
26
29
-4
-11
21
-21
19
15
-8
17
-13
-151
9
9
-15
-1
11
23
-6
12
-43
-147
-42
4
-16
57
13
-7
4
9
4
-3
-146
-32
-2
37
3
-3
-11
32
-11
6
8
-42
3
-49
-20
-14
-20
8
-3
-53
-125
0
42
-3
-27
4
-1
-3
-5
45
-8
17
10
0
-5
-14
52
22
1
-44
12
-26
-40
-26
-31
0
15
-45
15
-9
-37
22
9
-1
3
18
12
36
50
6
12
-109
18
19
-13
11
19
7
39
2
8
4
29
-14
0
-19
78
33
6
48
62
31
42
7
17
-57
-47
-30
-7
-75
-31
42
-29
-35
-37
-3
-1
-7
3
0
2
25
9
5
-10
-4
33
8
-16
-5
-3
43
5
-12
-24
10
14
-14
-3
-105
-5
15
16
-5
10
1
-190
11
1
-12
6
8
14
-38
12
24
-1
-10
-16
3
-104
48
-3
21
24
11
-290
4
3
-2
19
62
-16
5
2
69
0
13
43
12
18
-12
180
41
-24
-27
-48
-19
-129
44
2
-85
-7
45
20
-28
28
-60
9
-13
10
6
20
-34
21
11
-15
31
33
-1
40
8
-20
-59
25
-41
-14
-4
39
-8
3
-92
37
-6
-27
-15
-74
-13
3
12
-12
3
-2
-28
8
17
25
-70
-79
-24
-23
58
12
14
41
-4
10
6
25
10
1
22
13
0
-5
-138
17
64
8
-3
9
45
-5
23
-15
-156
21
-18
-19
59
15
8
8
4
7
3
-141
-39
-14
0
-1
7
-9
30
-7
22
16
17
47
-36
-10
-18
-10
-9
-6
-30
-123
22
16
20
-28
5
-17
27
7
24
-8
2
13
3
-2
-24
52
25
20
-39
10
-28
-25
-39
-31
-1
23
-46
10
-14
-14
21
19
5
14
26
2
0
58
8
11
-107
34
20
3
7
9
-8
16
-5
7
34
57
-13
-15
-11
-14
38
8
32
54
28
25
19
21
-53
-40
-56
0
-79
31
-31
-19
-32
-47
-4
-6
-1
-19
-1
0
-10
0
8
2
6
8
5
-18
28
-24
51
40
1
0
0
21
37
-6
-103
-16
17
22
5
4
-8
-175
20
30
-5
27
67
10
-60
10
26
-1
-9
-16
0
-57
0
-14
39
-85
1
-254
21
19
20
23
-38
4
7
11
6
-11
15
38
21
-12
-16
186
29
-20
17
-57
-17
-113
22
7
-82
-16
10
6
4
22
-69
-6
-7
34
14
18
-41
-25
22
-21
28
5
-3
3
32
-20
-18
15
-33
-42
-11
45
2
3
-81
41
-20
-30
-39
-57
-74
22
4
-22
4
-12
-28
-2
-1
0
-79
-82
21
14
-43
34
20
10
30
9
-10
27
-22
15
8
-7
2
24
-144
12
12
-3
-11
5
43
15
24
-35
-161
0
-11
-13
47
20
-38
11
1
5
5
-130
-34
3
-17
-14
20
-5
39
-2
37
-7
22
-1
-52
-15
-9
-8
6
1
-31
-120
22
23
21
-42
16
-20
-31
0
31
15
2
-26
-39
0
-30
26
25
-2
-46
53
-30
-43
-23
-32
-47
3
-33
10
-27
-34
17
0
26
7
-8
26
20
45
-18
34
-115
37
-16
-11
27
8
30
10
-40
14
12
14
-41
-21
4
0
32
33
64
27
13
2
10
-17
-49
-38
-21
-2
-82
9
3
-14
-32
-53
43
-11
11
22
-6
-11
-20
18
23
12
-6
-6
-22
-7
-5
-19
-84
9
-12
-26
2
-13
-8
-4
-111
-24
51
15
-50
30
-36
-153
17
-11
-53
36
-8
24
3
7
8
-10
-9
-13
3
-138
3
16
17
-46
-36
-267
5
7
-2
19
40
9
-2
12
23
-10
1
35
12
23
-45
174
26
-19
-27
-55
-12
-164
56
2
-84
-14
-20
10
21
20
-38
21
25
28
5
11
-32
-14
13
-8
5
38
-19
23
35
-22
-48
10
0
23
-6
9
0
-11
-85
0
19
-26
-11
-10
1
15
6
-4
21
20
-52
51
29
18
-67
-91
58
0
-12
37
14
23
2
-49
-17
26
-5
19
19
-5
0
-2
-143
19
10
0
11
10
3
3
12
-24
-36
-45
-10
-11
30
-16
-21
52
15
53
3
-123
-2
0
-3
-16
-4
-4
36
-18
-58
38
15
41
-15
-16
-14
-18
9
-28
12
-129
0
53
3
-6
-45
-3
-11
14
33
22
13
-15
-44
-8
-13
21
30
-14
-49
3
-27
-42
-16
-33
-33
3
-29
11
-18
-27
26
-5
43
1
48
23
27
58
55
20
-114
50
16
-10
29
14
-15
20
-24
9
25
25
-33
13
-28
2
75
-124
64
16
12
14
-22
12
-49
-40
-7
-28
-60
-6
12
-29
-47
-56
26
-5
30
24
-10
4
-19
24
4
0
27
-19
-25
18
24
-14
-51
13
40
-25
-1
-2
39
0
-110
-2
-10
36
22
3
-35
-169
-1
26
-41
23
0
14
0
39
29
-30
-15
2
-6
-106
-16
-31
49
-1
2
-265
0
4
3
22
3
-15
6
4
21
-13
32
26
4
4
-34
168
32
-15
-29
-49
-13
-152
30
17
-76
-28
-15
21
-39
28
-48
0
42
-7
14
1
-38
16
20
4
6
36
-19
-11
33
-29
-67
13
-19
21
0
10
8
-19
-99
-6
-13
-23
-26
-3
-6
30
32
-17
11
16
-9
-35
-24
12
-75
-87
62
11
5
29
17
20
-3
-17
-9
38
-5
47
24
11
15
4
-145
9
-10
-7
19
16
8
-26
-1
-13
-52
-6
-11
-8
59
2
-18
49
4
31
1
-142
-1
25
0
11
-12
11
38
-14
-21
42
21
30
-23
-16
-15
-4
9
-20
-2
-126
8
48
27
0
14
25
-18
7
40
0
25
-4
-24
-11
-8
37
26
2
-58
47
-37
-49
-22
-37
-19
-2
-27
22
-4
-21
17
-28
10
-9
1
17
6
39
15
31
-108
46
5
-9
33
15
18
4
-37
5
-10
17
-65
-11
3
14
56
2
55
64
18
16
-54
36
-46
-53
-5
-31
-80
-8
5
-37
-31
-56
4
0
1
33
-4
-13
-5
6
9
7
15
17
-13
-31
12
-18
-50
21
3
-2
0
4
-19
12
-97
-14
-3
26
-64
17
11
-175
-1
-40
-24
31
-9
18
-1
23
-21
-11
-15
-49
16
-144
-3
10
-49
-22
16
-256
3
5
-7
-1
-1
7
6
7
13
-1
6
33
2
-25
-29
163
23
-14
39
-38
-12
-141
43
3
-75
56
16
27
40
21
-34
29
24
-2
-7
3
-38
13
80
-18
34
19
-31
37
25
-11
-75
2
-5
21
-7
16
-24
-2
-111
12
3
-12
-5
-16
-14
14
19
10
7
15
-40
34
-20
9
-70
-88
58
14
12
32
24
17
32
-5
-1
4
-14
18
28
9
7
-3
-138
19
7
-4
6
8
13
38
-1
-38
-55
-28
-27
5
57
-13
-12
13
72
36
-1
-153
-1
-123
-6
14
17
-16
37
6
-223
38
-31
34
-20
-11
-36
-11
12
-32
-40
-125
30
46
10
6
11
-22
-3
-6
29
13
37
-5
-11
-13
-14
36
25
10
-58
1
-29
-49
-7
-35
-18
4
-21
19
-93
-23
20
29
7
13
0
10
39
64
27
9
-100
48
4
-16
32
13
-11
27
9
-4
15
37
-20
-10
-11
53
9
-65
49
41
26
38
36
22
-51
-52
-7
-10
-76
-3
9
-38
-41
-48
11
13
1
30
-16
23
-3
28
0
-23
17
-26
2
-45
5
-15
3
3
-41
-8
8
3
-17
-6
-103
-2
3
2
14
-5
0
-187
-21
-6
-5
28
4
5
-8
45
1
18
-16
3
5
-132
-11
16
33
-11
11
-267
2
7
-2
0
5
-20
7
6
20
3
19
4
57
-34
-25
164
31
-9
-11
-33
-25
-130
34
15
-76
-43
19
27
-31
17
-53
23
24
8
4
10
-34
29
14
-46
22
14
-3
36
15
-17
-93
-26
-23
19
8
26
-2
-23
-117
18
-9
-42
-8
-26
-34
1
6
-8
41
11
-28
21
1
9
-76
-82
45
16
-6
8
-243
10
0
18
3
49
10
52
34
-15
14
4
-147
13
3
-12
1
11
16
-28
8
-26
-73
-23
3
-11
59
17
-6
2
-2
-3
0
-165
-12
0
0
-7
1
-12
32
-10
-13
27
-1
25
-39
-2
-15
-42
9
-17
-49
-123
22
46
22
-20
17
7
-14
11
34
9
27
-1
-4
7
-5
46
31
3
-59
10
-31
-54
-23
-36
-10
-1
-28
21
-16
-16
13
5
9
3
12
4
0
20
-11
26
-100
36
4
7
26
15
41
25
-8
-11
-11
42
-23
38
4
23
44
11
46
54
23
10
33
18
-57
-52
-29
-3
-90
31
-15
-36
-37
-14
10
-6
-10
28
1
-22
2
13
20
1
10
0
17
-25
-6
-28
21
24
-2
15
5
6
8
15
-100
-6
12
23
24
16
3
-196
8
-4
-15
-47
1
18
-22
42
-25
-3
-19
0
4
-132
81
1
24
-2
-7
-266
4
2
-5
31
-17
-19
11
5
19
-24
27
67
-1
4
-21
153
35
-16
-49
-32
-44
-205
36
11
-70
60
31
36
0
24
-40
28
10
15
7
8
-33
11
6
-18
40
46
3
10
31
-3
-75
7
-41
18
-9
27
-27
14
-109
22
-12
-18
-23
-40
-4
3
17
13
9
11
-32
0
5
-4
-62
-87
30
95
2
39
11
16
-12
22
10
20
-44
3
22
-9
4
2
-137
13
81
-14
3
8
23
11
2
-21
-88
0
-25
1
60
21
1
3
17
13
13
-173
-18
-89
-11
-4
20
-3
31
-4
-9
24
27
29
-21
-1
-12
2
11
-16
-12
-119
40
34
7
-16
6
-21
-2
-3
44
12
13
1
3
0
-6
47
21
30
-57
13
-14
-40
-26
-32
-1
6
-32
20
-10
-20
14
0
8
10
23
11
19
44
12
8
-98
43
17
-11
21
7
24
24
-6
-1
13
48
-18
-3
-5
5
44
2
44
52
29
32
43
4
-55
-52
-23
-10
-82
22
19
-40
-45
-44
-13
8
-20
32
-11
22
-13
16
45
-11
6
-30
67
12
15
-23
39
29
35
0
5
13
32
-1
-112
-14
17
3
-12
-1
-23
-193
6
-6
-24
39
79
26
-27
38
18
-31
-23
-5
6
-100
1
-6
28
-24
-2
-281
0
-11
2
26
32
6
14
7
9
5
16
-6
67
-25
-18
169
40
-17
3
-42
-21
-170
29
13
-81
-14
46
30
-45
18
-49
16
7
17
6
26
-22
-2
10
-4
21
4
1
4
15
-28
-76
8
-36
0
8
41
10
24
-101
31
-10
-29
-8
-42
-21
0
25
-22
6
2
-24
2
-11
-25
-76
-79
23
18
-46
12
3
25
-20
-35
5
44
4
31
24
23
3
13
-135
12
16
-10
0
1
57
0
16
-10
-121
23
-16
-15
61
19
5
3
6
6
-13
-159
-30
18
2
-15
15
0
37
-4
14
19
15
51
-41
-6
-10
3
0
-10
-13
-120
43
26
9
-2
7
-2
-9
20
-11
-11
4
10
-15
15
-6
43
30
-15
-59
8
-35
-50
-27
-32
-2
15
-35
31
-4
-24
12
13
8
5
28
-3
8
24
15
48
-103
42
18
0
7
17
29
29
-27
6
5
-5
-21
43
1
33
35
-4
42
53
29
28
-16
33
-59
-57
-47
-59
-72
9
13
-36
-37
-49
1
-21
-7
22
-10
-21
6
8
-18
24
11
-8
-11
-3
13
-6
43
26
-1
-1
15
18
-2
21
-102
-16
18
3
22
33
-17
-185
6
-24
14
21
0
34
-27
39
0
-3
-15
-7
0
-153
0
2
22
41
9
-280
5
12
12
-11
-8
-34
22
9
24
-20
24
51
-7
-28
-16
167
54
-23
-50
-36
-19
-118
47
36
-79
-5
19
26
18
26
-39
16
-13
42
11
6
-18
60
3
-12
48
60
-11
5
24
-30
-57
8
-32
-8
-10
36
-18
18
-91
35
-31
-21
-21
-58
-7
19
-7
-15
6
11
-44
7
-55
5
-65
-83
12
15
18
52
12
-20
33
-28
-13
41
-89
15
16
-7
-13
2
-134
17
-1
-39
-14
18
10
2
3
-33
-142
-12
-15
-12
58
16
16
28
22
20
10
-152
-44
-19
0
3
19
-5
-10
-10
16
3
0
43
-23
-1
-15
19
9
-23
42
-120
16
30
11
-19
-1
-20
25
-19
45
-12
17
13
8
0
-30
46
22
17
-48
0
-30
-46
-24
-32
5
-6
-63
14
-11
-10
8
10
4
25
19
10
39
39
-3
0
-104
18
14
-11
6
8
-30
19
-10
-2
28
34
-14
-9
8
94
32
3
46
58
25
31
-68
22
-59
-42
-37
-54
-58
-6
4
-23
-48
-60
-3
5
2
5
-6
45
-44
1
46
-4
6
-44
28
-16
-17
-42
47
4
-13
-12
0
14
6
-4
-102
-6
14
3
5
15
-8
-178
8
-1
3
3
12
4
-13
5
18
-4
-15
-26
2
-57
-21
-8
29
-34
-38
-251
10
-2
11
25
15
-16
16
2
-40
9
28
-9
15
8
-9
178
52
-15
7
-45
-21
-111
16
36
-84
-3
1
15
-36
19
-70
16
-3
-13
-5
31
-27
1
7
-19
35
-16
-23
15
28
-19
-28
-29
-35
-33
6
40
-8
-2
-98
37
-8
-22
10
-45
6
10
32
-26
6
1
-30
1
1
-4
-70
-83
27
8
-13
26
11
8
11
-15
-7
22
18
7
13
26
0
3
-130
12
-2
-19
-16
-2
57
-3
11
-10
-142
-38
-2
-14
58
27
-22
5
0
-14
0
-136
-39
0
8
-4
34
0
43
-8
28
21
20
41
-51
-7
-17
-6
11
-17
-58
-123
23
25
2
8
24
8
-3
30
32
20
-21
-9
-38
-1
-10
33
35
-36
-48
40
-19
-53
-16
-35
-53
8
-40
3
-8
-27
10
-33
9
4
0
28
59
50
17
8
-119
49
-16
-16
35
21
17
13
-9
-8
14
17
-54
24
-17
0
32
-98
63
40
16
11
-25
-6
-46
-38
-6
-4
-53
-8
-8
-20
-46
-48
-3
-11
-45
25
-5
0
1
4
7
-3
-12
-29
-52
-54
40
-14
-26
1
-18
-9
-9
-12
-13
5
-102
-2
71
21
-6
-11
0
-150
-31
-15
-21
30
-22
-3
8
28
-28
10
-35
15
-5
-148
-9
-23
-38
13
-12
-266
9
12
6
-6
0
27
0
2
23
-11
-4
22
9
-43
-38
171
38
-6
-37
-44
-10
-156
41
3
-81
12
0
12
35
18
-66
14
42
-14
10
23
-30
9
-70
-8
13
-6
-11
49
40
-3
-39
11
1
26
3
13
-15
7
-100
16
-12
-17
-25
-3
-28
-11
41
-3
19
16
-36
25
-8
14
-65
-94
64
27
-4
36
7
22
-5
-3
0
26
3
72
22
14
10
19
-153
20
1
6
41
15
1
9
-3
-13
-43
-15
-5
-12
31
0
-18
10
74
32
6
-123
0
-26
2
35
-1
-11
28
-13
-44
43
34
10
-12
-7
-15
-17
-5
-19
-32
-135
22
48
-1
6
-16
-27
21
-1
37
14
10
-36
-47
-23
-6
23
25
16
-53
-35
-38
-47
-23
-36
-9
7
-14
23
-19
-30
12
-7
21
21
111
24
-1
31
-14
57
-118
50
-12
-18
37
18
11
24
2
-10
27
20
-33
25
-5
10
36
-91
56
20
19
23
20
39
-50
-44
-4
-5
-83
15
-5
-30
-44
-39
9
-7
-52
37
-8
4
-11
63
-11
17
-6
-3
-5
-21
0
-15
2
13
-9
0
-10
-10
-31
14
-101
-12
-1
19
-81
4
-20
-161
0
-13
-35
27
0
-1
4
20
-32
-4
-21
4
9
-147
-3
