-8
-29
40
-17
42
0
50
19
-51
31
-68
-54
-59
-57
95
-14
0
-4
118
-12
176
11
-64
-5
8
15
-56
21
76
-62
-34
-44
-51
-13
-68
29
-14
51
-10
-39
-92
-29
1
13
-71
-74
-28
-19
-67
-30
5
0
2
-76
-22
-41
-22
0
-82
-5
68
52
67
133
-39
-36
45
57
-77
5
-30
-19
16
-1
-2
-95
-16
-19
-14
43
17
-11
39
-20
-81
-70
30
-41
-18
-50
-66
49
14
-4
-13
21
0
-62
75
67
-4
-24
123
-28
32
-74
-54
4
109
-52
-3
58
-33
82
-44
-39
36
104
-13
-45
-46
19
159
-94
-83
-32
-16
-19
30
-98
234
-71
-60
-105
-1
-41
-21
241
-85
-97
-65
43
-38
-7
57
-59
-62
-92
-43
-35
54
44
210
118
-39
-75
-2
-42
-8
-62
48
-24
-70
58
32
-75
-8
-53
-39
3
-84
25
6
-1
-85
10
-62
-11
102
-46
-90
-8
-49
-162
-2
40
-69
-114
-50
42
-23
6
1
-76
78
-92
-28
11
-60
-5
-53
1
53
121
-88
-21
19
-111
5
125
-16
72
26
-29
2
69
-39
-8
26
63
-18
42
35
-5
86
1
-36
-63
0
-6
-5
-70
134
-73
-25
-32
-26
-17
-142
-106
36
81
17
28
-7
-36
0
-90
-66
-13
112
-20
29
13
-77
54