-25
24
-16
-17
15
21
-19
21
-36
-35
-27
41
-44
26
17
-101
23
-26
99
-24
-42
43
18
-26
19
-21
40
50
-7
-24
-18
-40
-37
17
27
17
21
52
21
-37
28
46
-20
16
26
-25
-21
18
17
-27
16
-17
33
31
-21
-72
29
108
26
-20
20
109
-63
-27
-32
106
20
17
88
-105
-33
-22
-47
-16
65
-31
-20
22
25
-17
17
19
15
-18
-48
22
-24
-54
17
37
26
26
-28
-20
-27
-57
17
-34
16
-18
18
-17
72
-24
-16
-21
39
27
18
-41
18
20
-25
-15
28
24
-62
9
9
34
-18
16
-124
-44
31
-40
16
-20
-19
30
27
-28
24
-27
23
33
-17
-30
59
-45
-31
-19
26
-25
-88
23
28
-116
24
-21
-30
-18
-106
-24
33
23
18
35
-21
58
-17
-31
35
-21
17
-30
15
-37
-26
23
-34
-63
-27
-26
-72
-18
-23
103
28
-24
-28
-21
-53
20
16
15
-24
-22
-36
-24
17
-17
-24
126
-126
-38
-20
-16
30
21
21
22
-17
-22
7
-22
17
39
16
25
10
73
27
31
-17
-19
-45
29
14
25
-29
-46
-17
-19
-23
124
26
28
-17
28
18
31
-126
67
-19
-24
-23
22
-27
26
-27
15
27
15
17
-27
24
82
45
-18
30
-20
120
18
-96
17
24
-22
17
17
-15
-20
18
-21
42
34
26
-29
65
-26
-18
106
-23
26
-100
24
30
-44
-18
27
-18
19
-37
-62
8
25
22
41
38
-16
-30
-16
-22
-52
-18
43
-25
-42
20
-16
-23
24
23
-16
-18
29
-17
17
-31
-32
21
77
-31
-96
-26
20
-20
-113
57
27
36
-111
-19
-17
-93
110
29
22
46
16
-53
32
19
-21
-24
17
-18
-19
-15
18
45
-21
24
76
-17
-35
-26
-25
28
21
27
56
-16
32
-15
18
-18
17
-68
24
17
21
-42
-25
-17
47
-18
-21
25
15
-26
-24
62
-8
-8
-36
15
-16
126
44
-33
48
-16
20
18
-27
-28
32
-20
27
-26
-32
16
26
-58
53
32
19
-23
23
98
-30
-32
113
-22
23
29
17
105
22
-28
-26
-17
-28
22
-51
18
32
-33
22
-16
29
-16
40
25
-25
35
55
31
26
80
17
21
-106
-32
25
29
21
58
-21
-18
-16
23
22
41
24
-18
17
26
-95
126
60
22
17
-30
-21
-22
-21
17
19
-8
21
-17
-39
-16
-26
-9
-79
-27
-31
17
17
48
-28
-14
-24
27
51
18
19
24
-126
-25
-29
17
-26
-17
-31
126
-46
20
27
23
-20
26
-25
27
-16
-28
-15
-17
27
-25
-75
-45
18
-28
19
-123
-17
113
-17